{"learner":{"attributes":{"scikit_learn":"{\"_estimator_type\": \"classifier\"}"},"feature_names":[],"feature_types":[],"gradient_booster":{"model":{"cats":{"enc":[],"feature_segments":[],"sorted_idx":[]},"gbtree_model_param":{"num_parallel_tree":"1","num_trees":"900"},"iteration_indptr":[0,3,6,9,12,15,18,21,24,27,30,33,36,39,42,45,48,51,54,57,60,63,66,69,72,75,78,81,84,87,90,93,96,99,102,105,108,111,114,117,120,123,126,129,132,135,138,141,144,147,150,153,156,159,162,165,168,171,174,177,180,183,186,189,192,195,198,201,204,207,210,213,216,219,222,225,228,231,234,237,240,243,246,249,252,255,258,261,264,267,270,273,276,279,282,285,288,291,294,297,300,303,306,309,312,315,318,321,324,327,330,333,336,339,342,345,348,351,354,357,360,363,366,369,372,375,378,381,384,387,390,393,396,399,402,405,408,411,414,417,420,423,426,429,432,435,438,441,444,447,450,453,456,459,462,465,468,471,474,477,480,483,486,489,492,495,498,501,504,507,510,513,516,519,522,525,528,531,534,537,540,543,546,549,552,555,558,561,564,567,570,573,576,579,582,585,588,591,594,597,600,603,606,609,612,615,618,621,624,627,630,633,636,639,642,645,648,651,654,657,660,663,666,669,672,675,678,681,684,687,690,693,696,699,702,705,708,711,714,717,720,723,726,729,732,735,738,741,744,747,750,753,756,759,762,765,768,771,774,777,780,783,786,789,792,795,798,801,804,807,810,813,816,819,822,825,828,831,834,837,840,843,846,849,852,855,858,861,864,867,870,873,876,879,882,885,888,891,894,897,900],"tree_info":[0,1,2,0,1,2,0,1,2,0,1,2,0,1,2,0,1,2,0,1,2,0,1,2,0,1,2,0,1,2,0,1,2,0,1,2,0,1,2,0,1,2,0,1,2,0,1,2,0,1,2,0,1,2,0,1,2,0,1,2,0,1,2,0,1,2,0,1,2,0,1,2,0,1,2,0,1,2,0,1,2,0,1,2,0,1,2,0,1,2,0,1,2,0,1,2,0,1,2,0,1,2,0,1,2,0,1,2,0,1,2,0,1,2,0,1,2,0,1,2,0,1,2,0,1,2,0,1,2,0,1,2,0,1,2,0,1,2,0,1,2,0,1,2,0,1,2,0,1,2,0,1,2,0,1,2,0,1,2,0,1,2,0,1,2,0,1,2,0,1,2,0,1,2,0,1,2,0,1,2,0,1,2,0,1,2,0,1,2,0,1,2,0,1,2,0,1,2,0,1,2,0,1,2,0,1,2,0,1,2,0,1,2,0,1,2,0,1,2,0,1,2,0,1,2,0,1,2,0,1,2,0,1,2,0,1,2,0,1,2,0,1,2,0,1,2,0,1,2,0,1,2,0,1,2,0,1,2,0,1,2,0,1,2,0,1,2,0,1,2,0,1,2,0,1,2,0,1,2,0,1,2,0,1,2,0,1,2,0,1,2,0,1,2,0,1,2,0,1,2,0,1,2,0,1,2,0,1,2,0,1,2,0,1,2,0,1,2,0,1,2,0,1,2,0,1,2,0,1,2,0,1,2,0,1,2,0,1,2,0,1,2,0,1,2,0,1,2,0,1,2,0,1,2,0,1,2,0,1,2,0,1,2,0,1,2,0,1,2,0,1,2,0,1,2,0,1,2,0,1,2,0,1,2,0,1,2,0,1,2,0,1,2,0,1,2,0,1,2,0,1,2,0,1,2,0,1,2,0,1,2,0,1,2,0,1,2,0,1,2,0,1,2,0,1,2,0,1,2,0,1,2,0,1,2,0,1,2,0,1,2,0,1,2,0,1,2,0,1,2,0,1,2,0,1,2,0,1,2,0,1,2,0,1,2,0,1,2,0,1,2,0,1,2,0,1,2,0,1,2,0,1,2,0,1,2,0,1,2,0,1,2,0,1,2,0,1,2,0,1,2,0,1,2,0,1,2,0,1,2,0,1,2,0,1,2,0,1,2,0,1,2,0,1,2,0,1,2,0,1,2,0,1,2,0,1,2,0,1,2,0,1,2,0,1,2,0,1,2,0,1,2,0,1,2,0,1,2,0,1,2,0,1,2,0,1,2,0,1,2,0,1,2,0,1,2,0,1,2,0,1,2,0,1,2,0,1,2,0,1,2,0,1,2,0,1,2,0,1,2,0,1,2,0,1,2,0,1,2,0,1,2,0,1,2,0,1,2,0,1,2,0,1,2,0,1,2,0,1,2,0,1,2,0,1,2,0,1,2,0,1,2,0,1,2,0,1,2,0,1,2,0,1,2,0,1,2,0,1,2,0,1,2,0,1,2,0,1,2,0,1,2,0,1,2,0,1,2,0,1,2,0,1,2,0,1,2,0,1,2,0,1,2,0,1,2,0,1,2,0,1,2,0,1,2,0,1,2,0,1,2,0,1,2,0,1,2,0,1,2,0,1,2,0,1,2,0,1,2,0,1,2,0,1,2,0,1,2,0,1,2,0,1,2,0,1,2,0,1,2,0,1,2,0,1,2,0,1,2,0,1,2,0,1,2,0,1,2,0,1,2,0,1,2,0,1,2,0,1,2,0,1,2,0,1,2,0,1,2,0,1,2,0,1,2,0,1,2,0,1,2,0,1,2,0,1,2,0,1,2,0,1,2,0,1,2,0,1,2,0,1,2,0,1,2,0,1,2,0,1,2,0,1,2,0,1,2,0,1,2,0,1,2,0,1,2,0,1,2,0,1,2,0,1,2,0,1,2,0,1,2,0,1,2,0,1,2,0,1,2,0,1,2,0,1,2,0,1,2,0,1,2,0,1,2,0,1,2,0,1,2,0,1,2,0,1,2,0,1,2],"trees":[{"base_weights":[2.965828E-1,6.065206E-1,2.3671043E-1,1.7158869E-1,6.507985E-1,1.6417043E-1,3.5062233E-1,4.3435708E-1,-0E0,6.62803E-1,-0E0,-7.749343E-2,1.9238067E-1,-2.4823336E-2,3.764511E-1,-0E0,6.159957E-3,-2.6404413E-3,8.325054E-4,8.728326E-3,5.702267E-3,4.6848333E-3,-2.155952E-3,1.7295673E-3,5.451575E-3,-2.110058E-3,3.659468E-3,4.958431E-3,2.5466527E-3],"categories":[],"categories_nodes":[],"categories_segments":[],"categories_sizes":[],"default_left":[0,0,0,0,0,0,0,0,0,0,0,0,0,0,0,0,0,0,0,0,0,0,0,0,0,0,0,0,0],"id":0,"left_children":[1,3,5,7,9,11,13,15,17,19,-1,21,23,25,27,-1,-1,-1,-1,-1,-1,-1,-1,-1,-1,-1,-1,-1,-1],"loss_changes":[1.9828201E1,2.398964E0,7.241276E0,1.3904431E0,1.6666336E0,4.174386E0,3.89505E0,7.575269E-1,5.000705E-1,6.2599945E-1,0E0,4.4359946E0,2.7495728E0,1.6568397E0,3.9798088E0,0E0,0E0,0E0,0E0,0E0,0E0,0E0,0E0,0E0,0E0,0E0,0E0,0E0,0E0],"parents":[2147483647,0,0,1,1,2,2,3,3,4,4,5,5,6,6,7,7,8,8,9,9,11,11,12,12,13,13,14,14],"right_children":[2,4,6,8,10,12,14,16,18,20,-1,22,24,26,28,-1,-1,-1,-1,-1,-1,-1,-1,-1,-1,-1,-1,-1,-1],"split_conditions":[-1.0370765E0,-1.3220171E0,2.545564E-1,-9.1665454E-2,3.216344E0,-1.0870501E0,-1.1098844E0,-1.9605454E0,1.747868E-1,-5.5618274E-1,-0E0,-6.448743E-1,1.731507E0,1.1114068E0,4.5860392E-1,-0E0,6.159957E-3,-2.6404413E-3,8.325054E-4,8.728326E-3,5.702267E-3,4.6848333E-3,-2.155952E-3,1.7295673E-3,5.451575E-3,-2.110058E-3,3.659468E-3,4.958431E-3,2.5466527E-3],"split_indices":[9,0,12,1,3,10,0,0,1,3,0,1,0,10,9,0,0,0,0,0,0,0,0,0,0,0,0,0,0],"split_type":[0,0,0,0,0,0,0,0,0,0,0,0,0,0,0,0,0,0,0,0,0,0,0,0,0,0,0,0,0],"sum_hessian":[1.1274346E3,1.7687144E2,9.505632E2,1.9330212E1,1.5754123E2,5.890882E2,3.6147498E2,8.698595E0,1.0631617E1,1.556082E2,1.9330212E0,5.750738E1,5.315808E2,2.0779978E1,3.4069498E2,3.382787E0,5.3158083E0,4.3492975E0,6.282319E0,3.914368E1,1.1646452E2,9.18185E0,4.832553E1,5.0935107E2,2.2229744E1,1.643068E1,4.3492975E0,1.6479005E2,1.7590492E2],"tree_param":{"num_deleted":"0","num_feature":"14","num_nodes":"29","size_leaf_vector":"1"}},{"base_weights":[3.0628424E-2,-2.3174138E-1,8.667368E-2,-4.5497543E-1,-1.4153537E-1,2.7646422E-1,4.3667987E-2,-4.9054235E-1,5.9580216E-5,1.7001003E-1,-1.996362E-1,-2.9063145E-2,3.82617E-1,-1.5407863E-1,7.475581E-2,-0E0,-5.547554E-3,-0E0,3.6821656E-3,-2.78714E-3,-0E0,-2.5512462E-3,2.2943022E-3,4.5036986E-3,-2.8340466E-4,-3.919055E-3,-8.898395E-4,1.494884E-3,3.421576E-5],"categories":[],"categories_nodes":[],"categories_segments":[],"categories_sizes":[],"default_left":[0,0,0,0,0,0,0,0,0,0,0,0,0,0,0,0,0,0,0,0,0,0,0,0,0,0,0,0,0],"id":1,"left_children":[1,3,5,7,9,11,13,15,-1,17,19,21,23,25,27,-1,-1,-1,-1,-1,-1,-1,-1,-1,-1,-1,-1,-1,-1],"loss_changes":[1.4907774E1,2.8410683E0,6.5595865E0,1.2589169E0,2.4909847E0,5.2921524E0,4.22398E0,1.2976179E0,0E0,9.7010297E-1,1.8578339E0,2.3935077E0,3.6515198E0,8.5618234E-1,3.0840456E0,0E0,0E0,0E0,0E0,0E0,0E0,0E0,0E0,0E0,0E0,0E0,0E0,0E0,0E0],"parents":[2147483647,0,0,1,1,2,2,3,3,4,4,5,5,6,6,7,7,9,9,10,10,11,11,12,12,13,13,14,14],"right_children":[2,4,6,8,10,12,14,16,-1,18,20,22,24,26,28,-1,-1,-1,-1,-1,-1,-1,-1,-1,-1,-1,-1,-1,-1],"split_conditions":[-9.6490574E-1,-6.5911645E-1,-7.9287905E-1,1.6715923E-1,-6.144924E-1,-6.6826695E-1,-2.6677486E-1,-2.1776826E0,5.9580216E-5,-2.8447177E-2,1.2979785E-1,-3.8808463E-3,1.553672E-1,-5.244362E-1,3.045739E-1,-0E0,-5.547554E-3,-0E0,3.6821656E-3,-2.78714E-3,-0E0,-2.5512462E-3,2.2943022E-3,4.5036986E-3,-2.8340466E-4,-3.919055E-3,-8.898395E-4,1.494884E-3,3.421576E-5],"split_indices":[9,4,12,1,4,4,2,9,0,2,2,2,3,3,9,0,0,0,0,0,0,0,0,0,0,0,0,0,0],"split_type":[0,0,0,0,0,0,0,0,0,0,0,0,0,0,0,0,0,0,0,0,0,0,0,0,0,0,0,0,0],"sum_hessian":[1.0189518E3,1.7510484E2,8.438469E2,4.4876114E1,1.3022873E2,1.4958705E2,6.942599E2,4.355623E1,1.3198857E0,1.7158514E1,1.1307021E2,3.6516838E1,1.1307021E2,8.887231E1,6.053876E2,5.719505E0,3.7836723E1,7.9193144E0,9.239201E0,8.095299E1,3.2117218E1,2.1558134E1,1.4958705E1,9.899143E1,1.4078781E1,1.3638819E1,7.523349E1,2.8773508E2,3.176525E2],"tree_param":{"num_deleted":"0","num_feature":"14","num_nodes":"29","size_leaf_vector":"1"}},{"base_weights":[-3.6520863E-1,-2.608594E-1,-4.514839E-1,2.6194563E-2,-2.793405E-1,-4.6392205E-1,-0E0,3.0290964E-1,-2.820304E-3,-1.8255894E-1,-3.7701327E-1,-2.702161E-1,-4.8378855E-1,-3.2248546E-3,4.4202808E-1,-6.2579516E-4,5.844941E-3,-3.2321047E-3,-9.054193E-4,-3.9577866E-3,-0E0,9.488956E-4,-3.0933013E-3,-5.011408E-3,-2.8240993E-3,5.6885323E-3,-0E0],"categories":[],"categories_nodes":[],"categories_segments":[],"categories_sizes":[],"default_left":[0,0,0,0,0,0,0,0,0,0,0,0,0,0,0,0,0,0,0,0,0,0,0,0,0,0,0],"id":2,"left_children":[1,3,5,7,9,11,13,15,-1,17,19,21,23,-1,25,-1,-1,-1,-1,-1,-1,-1,-1,-1,-1,-1,-1],"loss_changes":[7.412018E0,2.5503273E0,2.931656E0,2.2882512E0,3.1565075E0,8.6052704E-1,2.4330304E0,2.2032738E0,0E0,2.2946963E0,1.5599957E0,1.0522864E0,4.532013E-1,0E0,4.5126653E-1,0E0,0E0,0E0,0E0,0E0,0E0,0E0,0E0,0E0,0E0,0E0,0E0],"parents":[2147483647,0,0,1,1,2,2,3,3,4,4,5,5,6,6,7,7,9,9,10,10,11,11,12,12,14,14],"right_children":[2,4,6,8,10,12,14,16,-1,18,20,22,24,-1,26,-1,-1,-1,-1,-1,-1,-1,-1,-1,-1,-1,-1],"split_conditions":[-3.6850777E-1,-5.829482E-1,4.083989E0,1.0554877E-2,-3.8404398E-2,-1.563466E0,-6.905798E-1,-1.04247876E-1,-2.820304E-3,-1.06113106E-1,1.0656992E0,-3.924022E-1,5.4222697E-1,-3.2248546E-3,-2.3574771E-1,-6.2579516E-4,5.844941E-3,-3.2321047E-3,-9.054193E-4,-3.9577866E-3,-0E0,9.488956E-4,-3.0933013E-3,-5.011408E-3,-2.8240993E-3,5.6885323E-3,-0E0],"split_indices":[8,13,8,5,2,6,11,2,0,7,7,5,5,0,2,0,0,0,0,0,0,0,0,0,0,0,0],"split_type":[0,0,0,0,0,0,0,0,0,0,0,0,0,0,0,0,0,0,0,0,0,0,0,0,0,0,0],"sum_hessian":[9.265932E2,4.2825735E2,4.9833585E2,2.2580843E1,4.056765E2,4.8548813E2,1.2847721E1,1.362637E1,8.954473E0,2.1179272E2,1.9388379E2,5.2558857E1,4.3292926E2,7.3971725E0,5.450548E0,5.0612235E0,8.565147E0,7.747565E1,1.3431708E2,1.8570796E2,8.175822E0,2.3359492E0,5.0222908E1,3.9127148E2,4.165776E1,3.8932488E0,1.5572995E0],"tree_param":{"num_deleted":"0","num_feature":"14","num_nodes":"27","size_leaf_vector":"1"}},{"base_weights":[2.9153913E-1,2.1033835E-1,5.481069E-1,8.975879E-2,2.8083202E-1,5.9213805E-1,-3.77699E-2,5.353759E-3,1.7623201E-1,7.6233345E-1,2.5302097E-1,6.035134E-1,-0E0,2.1009354E-3,-1.7880142E-1,5.271326E-3,-2.1943654E-4,-9.049084E-4,3.212552E-3,-1.0866386E-4,8.792451E-3,1.5463905E-3,3.311608E-3,8.122861E-3,5.0801453E-3,-4.0038833E-3,-0E0],"categories":[],"categories_nodes":[],"categories_segments":[],"categories_sizes":[],"default_left":[0,0,0,0,0,0,0,0,0,0,0,0,0,0,0,0,0,0,0,0,0,0,0,0,0,0,0],"id":3,"left_children":[1,3,5,7,9,11,13,15,17,19,21,23,-1,-1,25,-1,-1,-1,-1,-1,-1,-1,-1,-1,-1,-1,-1],"loss_changes":[2.3072815E1,7.0889015E0,7.6532593E0,2.2552729E0,5.9824104E0,2.249092E0,7.2223884E-1,3.0494034E0,6.4441576E0,3.341835E0,3.4571762E0,2.8917618E0,0E0,0E0,8.1593686E-1,0E0,0E0,0E0,0E0,0E0,0E0,0E0,0E0,0E0,0E0,0E0,0E0],"parents":[2147483647,0,0,1,1,2,2,3,3,4,4,5,5,6,6,7,7,8,8,9,9,10,10,11,11,14,14],"right_children":[2,4,6,8,10,12,14,16,18,20,22,24,-1,-1,26,-1,-1,-1,-1,-1,-1,-1,-1,-1,-1,-1,-1],"split_conditions":[5.336019E-2,-3.5240006E-1,5.8619624E-1,-1.255279E-1,-1.1352541E0,4.6597214E0,3.408136E-1,-8.847679E-1,-2.5443943E-2,-2.9630797E0,-2.7334255E-1,-4.2321244E-1,-0E0,2.1009354E-3,-2.2858717E-1,5.271326E-3,-2.1943654E-4,-9.049084E-4,3.212552E-3,-1.0866386E-4,8.792451E-3,1.5463905E-3,3.311608E-3,8.122861E-3,5.0801453E-3,-4.0038833E-3,-0E0],"split_indices":[8,10,13,5,7,8,8,13,13,7,5,1,0,0,1,0,0,0,0,0,0,0,0,0,0,0,0],"split_type":[0,0,0,0,0,0,0,0,0,0,0,0,0,0,0,0,0,0,0,0,0,0,0,0,0,0,0],"sum_hessian":[1.1529591E3,8.815088E2,2.7145032E2,3.321308E2,5.4937805E2,2.5404333E2,1.7406973E1,1.7500221E2,1.5712857E2,2.5151035E1,5.24227E2,2.506571E2,3.3862245E0,3.3860242E0,1.4020949E1,8.700864E0,1.6630135E2,5.3179268E1,1.0394931E2,2.4182801E0,2.2732756E1,2.4035881E2,2.8386816E2,7.067337E1,1.7998373E2,6.284691E0,7.736259E0],"tree_param":{"num_deleted":"0","num_feature":"14","num_nodes":"27","size_leaf_vector":"1"}},{"base_weights":[5.410112E-3,-2.2283472E-1,5.1221408E-2,-1.6202073E-1,-5.2456045E-1,1.3064335E-1,-1.102766E-2,-3.8603094E-1,-7.515161E-2,-0E0,-5.904694E-1,2.5077483E-1,1.880945E-2,6.942951E-3,-3.0852705E-1,-0E0,-4.745597E-3,-0E0,-2.6930901E-3,-6.273046E-3,-0E0,4.1657718E-4,3.643746E-3,1.5650196E-3,-9.621348E-4,-1.5353364E-3,4.7048755E-4,-3.565164E-3,5.7943198E-5],"categories":[],"categories_nodes":[],"categories_segments":[],"categories_sizes":[],"default_left":[0,0,0,0,0,0,0,0,0,0,0,0,0,0,0,0,0,0,0,0,0,0,0,0,0,0,0,0,0],"id":4,"left_children":[1,3,5,7,9,11,13,15,17,-1,19,21,23,25,27,-1,-1,-1,-1,-1,-1,-1,-1,-1,-1,-1,-1,-1,-1],"loss_changes":[1.0844151E1,2.3080425E0,4.4774504E0,2.3839285E0,1.0910668E0,5.0177736E0,2.918081E0,1.5103531E0,1.7369428E0,0E0,5.1703167E-1,3.972784E0,3.4267077E0,2.865708E0,8.231716E-1,0E0,0E0,0E0,0E0,0E0,0E0,0E0,0E0,0E0,0E0,0E0,0E0,0E0,0E0],"parents":[2147483647,0,0,1,1,2,2,3,3,4,4,5,5,6,6,7,7,8,8,10,10,11,11,12,12,13,13,14,14],"right_children":[2,4,6,8,10,12,14,16,18,-1,20,22,24,26,28,-1,-1,-1,-1,-1,-1,-1,-1,-1,-1,-1,-1,-1,-1],"split_conditions":[-9.8193425E-1,1.0892389E0,-1.397826E-1,-5.576357E-1,-1.278958E0,1.0409486E-1,1.142116E0,-1.9670604E0,-1.223837E0,-0E0,5.6115484E-1,-1.9733225E-1,8.068059E-2,-5.3580165E-1,9.479032E-1,-0E0,-4.745597E-3,-0E0,-2.6930901E-3,-6.273046E-3,-0E0,4.1657718E-4,3.643746E-3,1.5650196E-3,-9.621348E-4,-1.5353364E-3,4.7048755E-4,-3.565164E-3,5.7943198E-5],"split_indices":[9,11,0,3,0,13,7,13,9,0,13,7,2,13,11,0,0,0,0,0,0,0,0,0,0,0,0,0,0],"split_type":[0,0,0,0,0,0,0,0,0,0,0,0,0,0,0,0,0,0,0,0,0,0,0,0,0,0,0,0,0],"sum_hessian":[1.0493328E3,1.7046597E2,8.7886676E2,1.4718791E2,2.327806E1,3.9225986E2,4.866069E2,3.5987473E1,1.1120044E2,2.1988225E0,2.1079239E1,1.8360527E2,2.0865457E2,4.5755972E2,2.9047169E1,6.1445737E0,2.9842901E1,8.043663E1,3.0763811E1,1.9762293E1,1.3169464E0,6.8691895E1,1.1491338E2,9.8597466E1,1.10057106E2,8.5371124E1,3.721886E2,2.7726908E1,1.3202604E0],"tree_param":{"num_deleted":"0","num_feature":"14","num_nodes":"29","size_leaf_vector":"1"}},{"base_weights":[-3.714909E-1,-2.839734E-1,-4.5326123E-1,-3.6840943E-1,-1.8730119E-1,-4.6486142E-1,-0E0,-0E0,-3.7714198E-1,-2.0810121E-1,3.6518943E-1,-0E0,-4.743771E-1,2.6032773E-1,-2.7035445E-3,-3.1137934E-3,-5.047605E-3,-9.843637E-4,-3.0708422E-3,6.6846544E-3,-0E0,4.770972E-3,-3.249615E-3,-4.858918E-3,-6.1417033E-4,-0E0,5.5742213E-3],"categories":[],"categories_nodes":[],"categories_segments":[],"categories_sizes":[],"default_left":[0,0,0,0,0,0,0,0,0,0,0,0,0,0,0,0,0,0,0,0,0,0,0,0,0,0,0],"id":5,"left_children":[1,3,5,7,9,11,13,-1,15,17,19,21,23,25,-1,-1,-1,-1,-1,-1,-1,-1,-1,-1,-1,-1,-1],"loss_changes":[5.5977707E0,3.0302773E0,2.3705215E0,1.0938377E0,2.5494313E0,2.2301407E0,1.1311114E0,0E0,8.2351685E-1,1.8921976E0,1.1685834E0,1.9547732E0,1.5174637E0,8.15525E-1,0E0,0E0,0E0,0E0,0E0,0E0,0E0,0E0,0E0,0E0,0E0,0E0,0E0],"parents":[2147483647,0,0,1,1,2,2,3,3,4,4,5,5,6,6,8,8,9,9,10,10,11,11,12,12,13,13],"right_children":[2,4,6,8,10,12,14,-1,16,18,20,22,24,26,-1,-1,-1,-1,-1,-1,-1,-1,-1,-1,-1,-1,-1],"split_conditions":[-3.4155044E-1,-3.9596698E-1,3.2217562E0,-3.980242E-1,-3.4739038E-1,-7.1389097E-1,3.8351429E0,-0E0,-2.599635E-1,-2.6031458E-1,1.6081344E-1,5.336019E-2,3.6095517E0,-1.2713881E-1,-2.7035445E-3,-3.1137934E-3,-5.047605E-3,-9.843637E-4,-3.0708422E-3,6.6846544E-3,-0E0,4.770972E-3,-3.249615E-3,-4.858918E-3,-6.1417033E-4,-0E0,5.5742213E-3],"split_indices":[8,11,4,5,8,4,4,0,4,5,10,8,8,8,0,0,0,0,0,0,0,0,0,0,0,0,0],"split_type":[0,0,0,0,0,0,0,0,0,0,0,0,0,0,0,0,0,0,0,0,0,0,0,0,0,0,0],"sum_hessian":[9.1920123E2,4.5422568E2,4.6497556E2,2.3393483E2,2.2029086E2,4.5293024E2,1.204533E1,3.1091123E0,2.3082571E2,2.1524408E2,5.046788E0,8.157857E0,4.4477237E2,5.8305244E0,6.214805E0,1.620408E2,6.8784904E1,1.0879741E2,1.0644666E2,2.7183285E0,2.3284597E0,3.498231E0,4.6596255E0,4.3000754E2,1.4764843E1,3.497987E0,2.3325377E0],"tree_param":{"num_deleted":"0","num_feature":"14","num_nodes":"27","size_leaf_vector":"1"}},{"base_weights":[2.7370757E-1,6.4939344E-1,2.2270103E-1,-0E0,7.2330946E-1,1.928907E-1,3.743125E-1,-1.6489944E-1,1.9497992E-1,7.387584E-1,-0E0,-1.338937E-1,2.0905913E-1,-1.1870835E-1,4.0103322E-1,-0E0,-3.1083282E-3,3.6767228E-3,-6.7680236E-4,7.4812137E-3,-0E0,2.661157E-3,-2.5080116E-3,1.5865854E-3,2.9623637E-3,-2.668824E-3,-0E0,2.7311726E-3,5.378649E-3],"categories":[],"categories_nodes":[],"categories_segments":[],"categories_sizes":[],"default_left":[0,0,0,0,0,0,0,0,0,0,0,0,0,0,0,0,0,0,0,0,0,0,0,0,0,0,0,0,0],"id":6,"left_children":[1,3,5,7,9,11,13,15,17,19,-1,21,23,25,27,-1,-1,-1,-1,-1,-1,-1,-1,-1,-1,-1,-1,-1,-1],"loss_changes":[2.0830467E1,5.969246E0,3.8796158E0,6.149502E-1,1.372776E0,4.6674747E0,2.4758835E0,4.3586427E-1,8.1409055E-1,5.4255295E-1,0E0,1.9316976E0,3.0618668E0,3.427203E-1,1.5814476E0,0E0,0E0,0E0,0E0,0E0,0E0,0E0,0E0,0E0,0E0,0E0,0E0,0E0,0E0],"parents":[2147483647,0,0,1,1,2,2,3,3,4,4,5,5,6,6,7,7,8,8,9,9,11,11,12,12,13,13,14,14],"right_children":[2,4,6,8,10,12,14,16,18,20,-1,22,24,26,28,-1,-1,-1,-1,-1,-1,-1,-1,-1,-1,-1,-1,-1,-1],"split_conditions":[-1.1775854E0,-1.3806465E0,4.0921056E-1,-4.189943E-1,2.1515827E0,-1.3728395E0,-9.973639E-1,-6.5420294E-1,3.92902E-1,2.300741E0,-0E0,-3.0966678E-1,1.7475283E-1,1.6528549E0,-2.5241616E-1,-0E0,-3.1083282E-3,3.6767228E-3,-6.7680236E-4,7.4812137E-3,-0E0,2.661157E-3,-2.5080116E-3,1.5865854E-3,2.9623637E-3,-2.668824E-3,-0E0,2.7311726E-3,5.378649E-3],"split_indices":[13,12,1,1,1,6,13,1,7,5,0,12,12,1,5,0,0,0,0,0,0,0,0,0,0,0,0,0,0],"split_type":[0,0,0,0,0,0,0,0,0,0,0,0,0,0,0,0,0,0,0,0,0,0,0,0,0,0,0,0,0],"sum_hessian":[1.1456516E3,1.3180211E2,1.0138495E3,1.4539929E1,1.1726218E2,8.565686E2,1.5728088E2,6.303238E0,8.236691E0,1.14841644E2,2.4205337E0,3.678035E1,8.1978827E2,5.8080473E0,1.5147284E2,1.4551246E0,4.8481135E0,6.783988E0,1.452703E0,1.129047E2,1.9369434E0,5.806508E0,3.097384E1,5.3030743E2,2.8948083E2,4.356489E0,1.4515581E0,8.516103E1,6.63118E1],"tree_param":{"num_deleted":"0","num_feature":"14","num_nodes":"29","size_leaf_vector":"1"}},{"base_weights":[-8.75179E-3,6.415266E-2,-2.4563423E-1,1.7090397E-1,-5.2517552E-2,-2.7431008E-1,1.341326E-1,1.1384303E-1,4.3878537E-1,-2.7553488E-2,-3.1590697E-1,-2.9469296E-1,3.4923896E-1,3.6302015E-1,-2.5025379E-2,1.9584547E-3,-2.1863657E-4,7.3243044E-3,1.8620946E-3,-9.0783567E-4,1.1245083E-3,9.813491E-5,-4.0715975E-3,-4.2413264E-3,-1.9236284E-3,6.0984967E-3,-0E0,-0E0,5.5991104E-3,-2.3297067E-3,8.7418605E-4],"categories":[],"categories_nodes":[],"categories_segments":[],"categories_sizes":[],"default_left":[0,0,0,0,0,0,0,0,0,0,0,0,0,0,0,0,0,0,0,0,0,0,0,0,0,0,0,0,0,0,0],"id":7,"left_children":[1,3,5,7,9,11,13,15,17,19,21,23,25,27,29,-1,-1,-1,-1,-1,-1,-1,-1,-1,-1,-1,-1,-1,-1,-1,-1],"loss_changes":[1.8367884E1,1.0127625E1,2.9476366E0,5.8263817E0,2.1400483E0,3.1574097E0,9.579725E-1,4.135374E0,4.0487394E0,3.1244054E0,1.2753186E0,2.2889576E0,1.2210824E0,1.0331119E0,3.9761752E-1,0E0,0E0,0E0,0E0,0E0,0E0,0E0,0E0,0E0,0E0,0E0,0E0,0E0,0E0,0E0,0E0],"parents":[2147483647,0,0,1,1,2,2,3,3,4,4,5,5,6,6,7,7,8,8,9,9,10,10,11,11,12,12,13,13,14,14],"right_children":[2,4,6,8,10,12,14,16,18,20,22,24,26,28,30,-1,-1,-1,-1,-1,-1,-1,-1,-1,-1,-1,-1,-1,-1,-1,-1],"split_conditions":[6.292367E-2,-1.42628355E-2,2.6724885E0,1.9283539E-1,1.0248266E0,6.014957E0,7.3064446E-1,-4.4001374E-2,-4.5811194E-1,2.4872597E-1,-5.7155687E-1,-3.0118808E-1,-3.0939037E-1,-5.512632E-1,-1.7487524E-2,1.9584547E-3,-2.1863657E-4,7.3243044E-3,1.8620946E-3,-9.0783567E-4,1.1245083E-3,9.813491E-5,-4.0715975E-3,-4.2413264E-3,-1.9236284E-3,6.0984967E-3,-0E0,-0E0,5.5991104E-3,-2.3297067E-3,8.7418605E-4],"split_indices":[8,10,12,12,1,8,8,5,8,4,8,1,4,7,5,0,0,0,0,0,0,0,0,0,0,0,0,0,0,0,0],"split_type":[0,0,0,0,0,0,0,0,0,0,0,0,0,0,0,0,0,0,0,0,0,0,0,0,0,0,0,0,0,0,0],"sum_hessian":[1.0492515E3,8.0021045E2,2.4904102E2,4.2185846E2,3.7835202E2,2.345211E2,1.4519908E1,3.532057E2,6.865276E1,3.510823E2,2.7269718E1,2.2967198E2,4.8491244E0,7.4816856E0,7.038222E0,2.2420784E2,1.2899785E2,2.8157696E1,4.0495064E1,2.4725873E2,1.0382356E2,3.9602451E0,2.3309473E1,9.4312355E1,1.3535963E2,3.5293453E0,1.3197789E0,2.2005382E0,5.2811475E0,4.8389645E0,2.1992574E0],"tree_param":{"num_deleted":"0","num_feature":"14","num_nodes":"31","size_leaf_vector":"1"}},{"base_weights":[-3.565659E-1,-2.6863438E-1,-4.28413E-1,-2.8105313E-1,2.5131822E-1,-4.3471438E-1,-0E0,-2.6610535E-2,-3.0660638E-1,4.9451054E-3,-0E0,-0E0,-4.4012216E-1,-2.5114836E-3,4.2513832E-3,-1.4760249E-3,2.6973435E-3,-2.7798568E-3,-5.7046697E-3,3.256945E-3,-2.482717E-3,-0E0,-4.429798E-3],"categories":[],"categories_nodes":[],"categories_segments":[],"categories_sizes":[],"default_left":[0,0,0,0,0,0,0,0,0,0,0,0,0,0,0,0,0,0,0,0,0,0,0],"id":8,"left_children":[1,3,5,7,9,11,13,15,17,-1,-1,19,21,-1,-1,-1,-1,-1,-1,-1,-1,-1,-1],"loss_changes":[4.81662E0,2.8858929E0,1.1983337E0,2.3387299E0,9.6580905E-1,1.1576004E0,1.2074318E0,1.5170366E0,1.6434288E0,0E0,0E0,7.9789364E-1,6.723404E-1,0E0,0E0,0E0,0E0,0E0,0E0,0E0,0E0,0E0,0E0],"parents":[2147483647,0,0,1,1,2,2,3,3,4,4,5,5,6,6,7,7,8,8,11,11,12,12],"right_children":[2,4,6,8,10,12,14,16,18,-1,-1,20,22,-1,-1,-1,-1,-1,-1,-1,-1,-1,-1],"split_conditions":[-3.6850777E-1,1.4678186E0,4.6597214E0,-7.0091885E-1,1.642262E0,-7.1389097E-1,-3.0424413E-1,-9.867503E-2,8.3111435E-1,4.9451054E-3,-0E0,5.336019E-2,-1.414358E0,-2.5114836E-3,4.2513832E-3,-1.4760249E-3,2.6973435E-3,-2.7798568E-3,-5.7046697E-3,3.256945E-3,-2.482717E-3,-0E0,-4.429798E-3],"split_indices":[8,12,8,8,12,4,4,12,1,0,0,8,12,0,0,0,0,0,0,0,0,0,0],"split_type":[0,0,0,0,0,0,0,0,0,0,0,0,0,0,0,0,0,0,0,0,0,0,0],"sum_hessian":[9.071765E2,4.184475E2,4.8872897E2,4.114622E2,6.9853196E0,4.8094666E2,7.7823343E0,4.149537E1,3.6996683E2,4.2702436E0,2.7150762E0,5.8190813E0,4.7512756E2,5.8368382E0,1.9454958E0,3.257423E1,8.921141E0,3.40888E2,2.9078825E1,2.3354003E0,3.483681E0,2.7097106E0,4.7241785E2],"tree_param":{"num_deleted":"0","num_feature":"14","num_nodes":"23","size_leaf_vector":"1"}},{"base_weights":[3.0910912E-1,2.3274189E-1,5.4920197E-1,2.1289088E-1,6.172015E-1,5.817675E-1,-1.8769293E-3,1.9550382E-1,5.4243284E-1,-0E0,6.8581283E-1,-0E0,5.9651554E-1,-3.2704408E-4,2.130615E-3,4.2882696E-4,6.3496283E-3,2.120542E-3,-1.6381084E-3,-0E0,7.487741E-3,6.0367235E-3,-0E0],"categories":[],"categories_nodes":[],"categories_segments":[],"categories_sizes":[],"default_left":[0,0,0,0,0,0,0,0,0,0,0,0,0,0,0,0,0,0,0,0,0,0,0],"id":9,"left_children":[1,3,5,7,9,11,-1,13,15,17,19,-1,21,-1,-1,-1,-1,-1,-1,-1,-1,-1,-1],"loss_changes":[1.9887901E1,5.565922E0,7.11042E0,3.8353767E0,1.4637499E0,2.119957E0,0E0,3.397089E0,1.0171375E0,3.0454484E-1,9.8340607E-1,0E0,1.4779358E0,0E0,0E0,0E0,0E0,0E0,0E0,0E0,0E0,0E0,0E0],"parents":[2147483647,0,0,1,1,2,2,3,3,4,4,5,5,7,7,8,8,9,9,10,10,12,12],"right_children":[2,4,6,8,10,12,-1,14,16,18,20,-1,22,-1,-1,-1,-1,-1,-1,-1,-1,-1,-1],"split_conditions":[6.292367E-2,1.8640289E0,4.6597214E0,1.731507E0,6.5517235E-1,-4.0492904E-1,-1.8769293E-3,-1.3728395E0,-3.7359175E-1,1.0643711E0,-5.873866E-1,-0E0,4.248751E0,-3.2704408E-4,2.130615E-3,4.2882696E-4,6.3496283E-3,2.120542E-3,-1.6381084E-3,-0E0,7.487741E-3,6.0367235E-3,-0E0],"split_indices":[8,3,8,0,1,5,0,6,5,4,8,0,3,0,0,0,0,0,0,0,0,0,0],"split_type":[0,0,0,0,0,0,0,0,0,0,0,0,0,0,0,0,0,0,0,0,0,0,0],"sum_hessian":[1.1392734E3,8.704956E2,2.687779E2,8.331839E2,3.7311707E1,2.5910535E2,9.672537E0,7.973364E2,3.5847492E1,4.360207E0,3.29515E1,6.7936153E0,2.5231174E2,5.277015E1,7.445662E2,7.748606E0,2.8098885E1,2.4232647E0,1.9369426E0,3.8767266E0,2.9074774E1,2.5037308E2,1.9386594E0],"tree_param":{"num_deleted":"0","num_feature":"14","num_nodes":"23","size_leaf_vector":"1"}},{"base_weights":[4.4356158E-4,-2.636845E-1,4.623826E-2,-3.386676E-1,-8.571436E-2,7.5161986E-2,-1.312242E-1,1.1903562E-4,-3.6349672E-1,1.2531751E-1,-2.9984742E-1,1.2305539E-1,-6.3462323E-3,-1.7053482E-1,3.5659364E-1,-3.9769593E-3,-0E0,3.2029802E-3,-1.131051E-3,-0E0,-4.5979223E-3,9.110333E-4,3.674848E-3,-2.0562694E-3,2.0863579E-4,-5.072632E-3,-9.0640824E-4,5.1336465E-3,-0E0],"categories":[],"categories_nodes":[],"categories_segments":[],"categories_sizes":[],"default_left":[0,0,0,0,0,0,0,0,0,0,0,0,0,0,0,0,0,0,0,0,0,0,0,0,0,0,0,0,0],"id":10,"left_children":[1,3,5,7,9,11,13,-1,15,17,19,21,23,25,27,-1,-1,-1,-1,-1,-1,-1,-1,-1,-1,-1,-1,-1,-1],"loss_changes":[1.2334334E1,1.5207071E0,4.51953E0,1.2392149E0,2.5600758E0,3.1214428E0,2.2419627E0,0E0,1.2810507E0,1.4329468E0,1.5845032E0,3.320149E0,1.7056911E0,2.391917E0,5.8902764E-1,0E0,0E0,0E0,0E0,0E0,0E0,0E0,0E0,0E0,0E0,0E0,0E0,0E0,0E0],"parents":[2147483647,0,0,1,1,2,2,3,3,4,4,5,5,6,6,8,8,9,9,10,10,11,11,12,12,13,13,14,14],"right_children":[2,4,6,8,10,12,14,-1,16,18,20,22,24,26,28,-1,-1,-1,-1,-1,-1,-1,-1,-1,-1,-1,-1,-1,-1],"split_conditions":[-1.0551726E0,-2.9778054E-1,1.113178E0,-1.9605454E0,7.61905E-1,2.7658632E-1,1.4684355E0,1.1903562E-4,9.031578E-1,5.246718E-1,-1.4326367E-1,1.7676392E-1,3.7172407E-1,-5.6735176E-1,1.107384E0,-3.9769593E-3,-0E0,3.2029802E-3,-1.131051E-3,-0E0,-4.5979223E-3,9.110333E-4,3.674848E-3,-2.0562694E-3,2.0863579E-4,-5.072632E-3,-9.0640824E-4,5.1336465E-3,-0E0],"split_indices":[9,3,0,0,8,7,9,0,5,7,3,7,7,4,3,0,0,0,0,0,0,0,0,0,0,0,0,0,0],"split_type":[0,0,0,0,0,0,0,0,0,0,0,0,0,0,0,0,0,0,0,0,0,0,0,0,0,0,0,0,0],"sum_hessian":[1.033693E3,1.4810747E2,8.855856E2,9.898002E1,4.9127457E1,7.673129E2,1.18272606E2,3.9516177E0,9.50284E1,2.2808662E1,2.6318794E1,4.9040506E2,2.7690787E2,1.12553314E2,5.719297E0,8.715792E1,7.8704805E0,1.4476938E1,8.331724E0,8.780346E0,1.7538448E1,4.397563E2,5.06488E1,3.6106487E1,2.4080139E2,1.713205E1,9.5421265E1,3.9595742E0,1.7597226E0],"tree_param":{"num_deleted":"0","num_feature":"14","num_nodes":"29","size_leaf_vector":"1"}},{"base_weights":[-3.5709196E-1,-2.6422983E-1,-4.4453773E-1,-2.7459857E-1,5.6770174E-3,-4.6012866E-1,3.8422715E-2,-2.4563847E-1,-6.0476135E-3,-0E0,-4.6455592E-1,-1.7126817E-3,3.8582855E-3,-1.2655471E-3,-3.2242713E-3,-0E0,-4.679192E-3],"categories":[],"categories_nodes":[],"categories_segments":[],"categories_sizes":[],"default_left":[0,0,0,0,0,0,0,0,0,0,0,0,0,0,0,0,0],"id":11,"left_children":[1,3,5,7,-1,9,11,13,-1,-1,15,-1,-1,-1,-1,-1,-1],"loss_changes":[6.5474854E0,3.9683628E0,3.9707413E0,3.2008553E0,0E0,8.576126E-1,1.398127E0,3.348919E0,0E0,0E0,9.0125275E-1,0E0,0E0,0E0,0E0,0E0,0E0],"parents":[2147483647,0,0,1,1,2,2,3,3,5,5,6,6,7,7,10,10],"right_children":[2,4,6,8,-1,10,12,14,-1,-1,16,-1,-1,-1,-1,-1,-1],"split_conditions":[-3.4155044E-1,-3.4484768E-1,4.083989E0,9.220433E-1,5.6770174E-3,-4.4799578E-1,-6.905798E-1,-9.3300365E-2,-6.0476135E-3,-0E0,-1.414358E0,-1.7126817E-3,3.8582855E-3,-1.2655471E-3,-3.2242713E-3,-0E0,-4.679192E-3],"split_indices":[8,8,8,1,0,2,11,2,0,0,12,0,0,0,0,0,0],"split_type":[0,0,0,0,0,0,0,0,0,0,0,0,0,0,0,0,0],"sum_hessian":[9.205131E2,4.558775E2,4.6463565E2,4.527762E2,3.1012774E0,4.5220276E2,1.243291E1,4.222551E2,3.0521132E1,4.6420226E0,4.4756073E2,6.5904913E0,5.842419E0,1.7272003E2,2.4953505E2,2.323143E0,4.4523758E2],"tree_param":{"num_deleted":"0","num_feature":"14","num_nodes":"17","size_leaf_vector":"1"}},{"base_weights":[2.7274236E-1,5.210226E-1,2.2308405E-1,-0E0,5.3361106E-1,6.0166323E-1,2.0670785E-1,5.490129E-1,-0E0,7.971507E-1,1.865117E-1,1.6365612E-1,3.6138114E-1,5.57081E-3,-0E0,-0E0,8.621498E-3,-0E0,4.089019E-3,1.1128469E-3,2.3420476E-3,2.530326E-3,5.6983046E-3],"categories":[],"categories_nodes":[],"categories_segments":[],"categories_sizes":[],"default_left":[0,0,0,0,0,0,0,0,0,0,0,0,0,0,0,0,0,0,0,0,0,0,0],"id":12,"left_children":[1,3,5,-1,7,9,11,13,-1,15,17,19,21,-1,-1,-1,-1,-1,-1,-1,-1,-1,-1],"loss_changes":[1.3374985E1,1.4062157E0,4.9992027E0,0E0,1.187439E0,1.7157688E0,5.6290627E0,8.4225464E-1,0E0,1.3854189E0,9.9209356E-1,2.357048E0,3.3692703E0,0E0,0E0,0E0,0E0,0E0,0E0,0E0,0E0,0E0,0E0],"parents":[2147483647,0,0,1,1,2,2,4,4,5,5,6,6,7,7,9,9,10,10,11,11,12,12],"right_children":[2,4,6,-1,8,10,12,14,-1,16,18,20,22,-1,-1,-1,-1,-1,-1,-1,-1,-1,-1],"split_conditions":[-1.0118334E0,-2.06038E0,-1.357424E0,-0E0,2.795269E0,-6.0687274E-2,8.248565E-1,2.0810854E0,-0E0,-1.2938201E0,-4.7018427E-2,2.5700226E-1,-1.3219105E-2,5.57081E-3,-0E0,-0E0,8.621498E-3,-0E0,4.089019E-3,1.1128469E-3,2.3420476E-3,2.530326E-3,5.6983046E-3],"split_indices":[9,0,7,0,4,3,12,7,0,12,9,7,2,0,0,0,0,0,0,0,0,0,0],"split_type":[0,0,0,0,0,0,0,0,0,0,0,0,0,0,0,0,0,0,0,0,0,0,0],"sum_hessian":[1.162032E3,1.871587E2,9.748733E2,3.8810253E0,1.8327768E2,3.4925842E1,9.3994745E2,1.7696759E2,6.31009E0,2.085605E1,1.4069792E1,7.435651E2,1.9638235E2,1.7453522E2,2.4323828E0,1.4525417E0,1.940351E1,6.7928777E0,7.276914E0,4.378551E2,3.0571E2,1.3528731E2,6.1095047E1],"tree_param":{"num_deleted":"0","num_feature":"14","num_nodes":"23","size_leaf_vector":"1"}},{"base_weights":[-8.450059E-3,-2.4761066E-1,2.4213022E-2,-1.7291173E-1,-6.0823252E-3,2.0133288E-1,-7.404042E-3,-3.651086E-1,-6.6522E-2,-3.5309817E-3,2.4232097E-1,-3.0139518E-1,1.3942937E-2,1.1879116E-3,-4.7096536E-3,5.7805236E-4,-2.2674527E-3,4.5532444E-3,7.4424583E-4,-5.0170366E-3,-1.6398273E-3,3.3500942E-3,-0E0],"categories":[],"categories_nodes":[],"categories_segments":[],"categories_sizes":[],"default_left":[0,0,0,0,0,0,0,0,0,0,0,0,0,0,0,0,0,0,0,0,0,0,0],"id":13,"left_children":[1,3,5,7,-1,9,11,13,15,-1,17,19,21,-1,-1,-1,-1,-1,-1,-1,-1,-1,-1],"loss_changes":[8.372296E0,2.4841146E0,5.318713E0,1.8094115E0,0E0,3.319027E0,5.1483884E0,2.3134031E0,1.7463548E0,0E0,4.2801237E0,7.002244E-1,3.243787E0,0E0,0E0,0E0,0E0,0E0,0E0,0E0,0E0,0E0,0E0],"parents":[2147483647,0,0,1,1,2,2,3,3,5,5,6,6,7,7,8,8,10,10,11,11,12,12],"right_children":[2,4,6,8,-1,10,12,14,16,-1,18,20,22,-1,-1,-1,-1,-1,-1,-1,-1,-1,-1],"split_conditions":[-1.1775854E0,4.878398E-1,-8.128903E-1,-4.3333536E-1,-6.0823252E-3,-1.3752178E0,-1.0666218E0,-1.355764E0,-2.8918096E-1,-3.5309817E-3,-1.7209891E-2,-2.6535875E-1,-8.7336123E-1,1.1879116E-3,-4.7096536E-3,5.7805236E-4,-2.2674527E-3,4.5532444E-3,7.4424583E-4,-5.0170366E-3,-1.6398273E-3,3.3500942E-3,-0E0],"split_indices":[13,0,11,1,0,12,7,10,10,0,7,12,7,0,0,0,0,0,0,0,0,0,0],"split_type":[0,0,0,0,0,0,0,0,0,0,0,0,0,0,0,0,0,0,0,0,0,0,0],"sum_hessian":[1.039628E3,1.270219E2,9.1260614E2,1.0997394E2,1.704796E1,1.4139566E2,7.712105E2,3.4102867E1,7.587107E1,7.0056834E0,1.3438997E2,5.3602524E1,7.17608E2,4.381725E0,2.9721142E1,3.9926643E1,3.5944427E1,5.5103027E1,7.928695E1,1.6691505E1,3.691102E1,2.8149187E1,6.894588E2],"tree_param":{"num_deleted":"0","num_feature":"14","num_nodes":"23","size_leaf_vector":"1"}},{"base_weights":[-3.751699E-1,-3.7986192E-1,1.3041025E-1,-3.5545668E-1,-5.323637E-1,-1.3549686E-3,4.737425E-3,1.8337601E-1,-3.6011928E-1,-0E0,-5.4543535E-3,-1.07733045E-4,4.646514E-3,-3.1503285E-3,-4.308121E-3],"categories":[],"categories_nodes":[],"categories_segments":[],"categories_sizes":[],"default_left":[0,0,0,0,0,0,0,0,0,0,0,0,0,0,0],"id":14,"left_children":[1,3,5,7,9,-1,-1,11,13,-1,-1,-1,-1,-1,-1],"loss_changes":[2.4938965E0,2.077896E0,1.1828306E0,2.2841568E0,4.6243668E-1,0E0,0E0,8.0412775E-1,1.4752274E0,0E0,0E0,0E0,0E0,0E0,0E0],"parents":[2147483647,0,0,1,1,2,2,3,3,4,4,7,7,8,8],"right_children":[2,4,6,8,10,-1,-1,12,14,-1,-1,-1,-1,-1,-1],"split_conditions":[4.6597214E0,6.556943E-1,1.04425E0,-1.5358824E0,-2.3896708E0,-1.3549686E-3,4.737425E-3,-1.2840341E0,5.93075E-1,-0E0,-5.4543535E-3,-1.07733045E-4,4.646514E-3,-3.1503285E-3,-4.308121E-3],"split_indices":[8,8,0,9,9,0,0,12,6,0,0,0,0,0,0],"split_type":[0,0,0,0,0,0,0,0,0,0,0,0,0,0,0],"sum_hessian":[9.0237695E2,8.96532E2,5.8449826E0,7.842461E2,1.1228593E2,2.3347833E0,3.5101993E0,4.2303886E0,7.800157E2,3.8577921E0,1.0842813E2,1.53738E0,2.6930084E0,4.915644E2,2.8845126E2],"tree_param":{"num_deleted":"0","num_feature":"14","num_nodes":"15","size_leaf_vector":"1"}},{"base_weights":[2.818873E-1,6.336954E-1,2.2617494E-1,6.55766E-1,-9.888734E-4,1.8530464E-1,4.2414525E-1,6.8227786E-1,-0E0,1.4818308E-1,3.4403962E-1,4.7851127E-1,-9.650906E-2,5.986155E-3,1.0413136E-2,1.9618853E-3,-2.4358009E-3,2.4555952E-3,9.5756806E-4,1.6049586E-3,4.7661043E-3,5.5856793E-3,1.777686E-3,-2.7941393E-3,-0E0],"categories":[],"categories_nodes":[],"categories_segments":[],"categories_sizes":[],"default_left":[0,0,0,0,0,0,0,0,0,0,0,0,0,0,0,0,0,0,0,0,0,0,0,0,0],"id":15,"left_children":[1,3,5,7,-1,9,11,13,15,17,19,21,23,-1,-1,-1,-1,-1,-1,-1,-1,-1,-1,-1,-1],"loss_changes":[2.1419281E1,3.1738205E0,7.3202553E0,2.6357727E0,0E0,4.333044E0,5.1531067E0,1.4713135E0,4.7100368E-1,3.1153803E0,2.9052277E0,2.7184067E0,5.018401E-1,0E0,0E0,0E0,0E0,0E0,0E0,0E0,0E0,0E0,0E0,0E0,0E0],"parents":[2147483647,0,0,1,1,2,2,3,3,5,5,6,6,7,7,8,8,9,9,10,10,11,11,12,12],"right_children":[2,4,6,8,-1,10,12,14,16,18,20,22,24,-1,-1,-1,-1,-1,-1,-1,-1,-1,-1,-1,-1],"split_conditions":[-1.1775854E0,4.083989E0,5.336019E-2,1.5048894E0,-9.888734E-4,4.9870545E-1,4.083989E0,9.29025E-1,-4.3333536E-1,-1.19511396E-1,-3.049769E-1,1.8120514E-1,-8.065424E-1,5.986155E-3,1.0413136E-2,1.9618853E-3,-2.4358009E-3,2.4555952E-3,9.5756806E-4,1.6049586E-3,4.7661043E-3,5.5856793E-3,1.777686E-3,-2.7941393E-3,-0E0],"split_indices":[13,8,8,5,0,11,8,11,1,2,5,4,11,0,0,0,0,0,0,0,0,0,0,0,0],"split_type":[0,0,0,0,0,0,0,0,0,0,0,0,0,0,0,0,0,0,0,0,0,0,0,0,0],"sum_hessian":[1.1493127E3,1.5183272E2,9.9748E2,1.4892093E2,2.9117985E0,8.34188E2,1.6329199E2,1.4308206E2,5.838863E0,6.8432056E2,1.4986746E2,1.4973898E2,1.3553001E1,1.2262731E2,2.0454752E1,3.40985E0,2.429013E0,2.3023688E2,4.5408368E2,6.7868385E1,8.199908E1,1.142787E2,3.5460285E1,6.2833734E0,7.2696285E0],"tree_param":{"num_deleted":"0","num_feature":"14","num_nodes":"25","size_leaf_vector":"1"}},{"base_weights":[1.431455E-2,7.862351E-2,-2.0047994E-1,-1.6267653E-1,1.0011869E-1,-2.2857377E-1,3.2262918E-1,-0E0,-4.735315E-1,1.820365E-1,2.4286676E-2,-2.6216865E-1,2.9441157E-2,4.190132E-3,-0E0,1.9623244E-3,-2.3906694E-3,-5.412603E-3,-0E0,2.1488261E-3,-3.1898199E-3,6.3748244E-4,-2.005979E-3,-3.2115371E-3,-5.319254E-4,-4.1775242E-3,2.6933658E-3],"categories":[],"categories_nodes":[],"categories_segments":[],"categories_sizes":[],"default_left":[0,0,0,0,0,0,0,0,0,0,0,0,0,0,0,0,0,0,0,0,0,0,0,0,0,0,0],"id":16,"left_children":[1,3,5,7,9,11,13,15,17,19,21,23,25,-1,-1,-1,-1,-1,-1,-1,-1,-1,-1,-1,-1,-1,-1],"loss_changes":[1.3938673E1,4.0500965E0,3.4481344E0,2.963684E0,4.3030095E0,2.1742258E0,4.6263278E-1,2.1162138E0,5.0516415E-1,5.677389E0,3.317243E0,2.0596972E0,2.6478806E0,0E0,0E0,0E0,0E0,0E0,0E0,0E0,0E0,0E0,0E0,0E0,0E0,0E0,0E0],"parents":[2147483647,0,0,1,1,2,2,3,3,4,4,5,5,6,6,7,7,8,8,9,9,10,10,11,11,12,12],"right_children":[2,4,6,8,10,12,14,16,18,20,22,24,26,-1,-1,-1,-1,-1,-1,-1,-1,-1,-1,-1,-1,-1,-1],"split_conditions":[1.18336536E-1,-3.0434662E-1,5.961203E-1,-2.853174E-1,2.154336E-1,3.8299632E-1,1.44211E0,7.932235E-1,2.820195E-1,2.0274613E0,3.617373E-1,1.5177828E-1,-1.4784772E0,4.190132E-3,-0E0,1.9623244E-3,-2.3906694E-3,-5.412603E-3,-0E0,2.1488261E-3,-3.1898199E-3,6.3748244E-4,-2.005979E-3,-3.2115371E-3,-5.319254E-4,-4.1775242E-3,2.6933658E-3],"split_indices":[8,2,2,8,13,13,12,13,7,4,5,2,7,0,0,0,0,0,0,0,0,0,0,0,0,0,0],"split_type":[0,0,0,0,0,0,0,0,0,0,0,0,0,0,0,0,0,0,0,0,0,0,0,0,0,0,0],"sum_hessian":[1.01362225E3,7.846296E2,2.289927E2,5.92986E1,7.25331E2,2.2020427E2,8.788433E0,4.0847164E1,1.8451435E1,3.4098865E2,3.8434232E2,1.9823642E2,2.1967855E1,7.031026E0,1.7574068E0,2.1969782E1,1.8877382E1,1.53777485E1,3.073687E0,3.229543E2,1.8034323E1,3.319698E2,5.2372543E1,1.5003036E2,4.820605E1,5.6968956E0,1.627096E1],"tree_param":{"num_deleted":"0","num_feature":"14","num_nodes":"27","size_leaf_vector":"1"}},{"base_weights":[-3.5757E-1,-5.3622466E-1,-3.280376E-1,-0E0,-5.4983264E-1,-2.7691004E-1,-4.1188887E-1,-5.56927E-1,-0E0,-8.614996E-2,-3.0723432E-1,-0E0,-4.312017E-1,-5.642127E-3,-0E0,-2.9984398E-3,5.3309795E-4,-3.1619105E-3,1.0116315E-3,-2.2960226E-3,5.6397244E-3,-0E0,-4.4072783E-3],"categories":[],"categories_nodes":[],"categories_segments":[],"categories_sizes":[],"default_left":[0,0,0,0,0,0,0,0,0,0,0,0,0,0,0,0,0,0,0,0,0,0,0],"id":17,"left_children":[1,3,5,-1,7,9,11,13,-1,15,17,19,21,-1,-1,-1,-1,-1,-1,-1,-1,-1,-1],"loss_changes":[3.4871826E0,8.206787E-1,2.405281E0,0E0,4.2987823E-1,2.4165688E0,1.8796997E0,4.4112396E-1,0E0,2.5191503E0,1.8216324E0,2.1248121E0,1.0235023E0,0E0,0E0,0E0,0E0,0E0,0E0,0E0,0E0,0E0,0E0],"parents":[2147483647,0,0,1,1,2,2,4,4,5,5,6,6,7,7,9,9,10,10,11,11,12,12],"right_children":[2,4,6,-1,8,10,12,14,-1,16,18,20,22,-1,-1,-1,-1,-1,-1,-1,-1,-1,-1],"split_conditions":[-1.1576862E0,-7.5657403E-1,6.0266834E-1,-0E0,2.300741E0,-3.4820196E-1,-1.5358824E0,2.1515827E0,-0E0,3.136247E-1,1.8303295E0,7.706185E-1,-1.0204971E0,-5.642127E-3,-0E0,-2.9984398E-3,5.3309795E-4,-3.1619105E-3,1.0116315E-3,-2.2960226E-3,5.6397244E-3,-0E0,-4.4072783E-3],"split_indices":[13,1,6,0,5,1,9,1,0,6,13,0,11,0,0,0,0,0,0,0,0,0,0],"split_type":[0,0,0,0,0,0,0,0,0,0,0,0,0,0,0,0,0,0,0,0,0,0,0],"sum_hessian":[8.8942584E2,1.1649865E2,7.729272E2,3.078302E0,1.1342035E2,4.9291034E2,2.8001688E2,1.1188449E2,1.5358616E0,7.318516E1,4.197252E2,1.45869875E1,2.6542987E2,1.1034802E2,1.5364646E0,3.0824009E1,4.236115E1,4.1355548E2,6.169716E0,1.2272054E1,2.3149335E0,6.166551E0,2.5926334E2],"tree_param":{"num_deleted":"0","num_feature":"14","num_nodes":"23","size_leaf_vector":"1"}},{"base_weights":[2.892921E-1,5.8029675E-1,2.341023E-1,-0E0,6.001062E-1,2.8159753E-3,2.5764298E-1,3.3884107E-3,-2.2627937E-3,6.628965E-1,3.5567796E-1,1.8348983E-1,-9.455985E-2,6.066785E-1,2.3681237E-1,-0E0,6.7818984E-3,4.8419824E-3,-7.017518E-4,3.3374561E-3,-2.363388E-3,-1.4421521E-3,3.0913895E-3,3.1943033E-3,8.200096E-3,1.637388E-3,2.9372927E-3],"categories":[],"categories_nodes":[],"categories_segments":[],"categories_sizes":[],"default_left":[0,0,0,0,0,0,0,0,0,0,0,0,0,0,0,0,0,0,0,0,0,0,0,0,0,0,0],"id":18,"left_children":[1,3,5,7,9,11,13,-1,-1,15,17,19,21,23,25,-1,-1,-1,-1,-1,-1,-1,-1,-1,-1,-1,-1],"loss_changes":[1.7120926E1,2.026493E0,4.9604225E0,7.54269E-1,1.1290016E0,1.7871355E0,5.1699944E0,0E0,0E0,1.7753906E0,2.8052454E0,2.613799E0,1.110216E0,1.083395E0,2.8726044E0,0E0,0E0,0E0,0E0,0E0,0E0,0E0,0E0,0E0,0E0,0E0,0E0],"parents":[2147483647,0,0,1,1,2,2,3,3,4,4,5,5,6,6,9,9,10,10,11,11,12,12,13,13,14,14],"right_children":[2,4,6,8,10,12,14,-1,-1,16,18,20,22,24,26,-1,-1,-1,-1,-1,-1,-1,-1,-1,-1,-1,-1],"split_conditions":[-1.0118334E0,-1.9605454E0,-9.903938E-1,-1.368395E0,3.4856567E-1,-6.175511E-1,-1.1775854E0,3.3884107E-3,-2.2627937E-3,-4.158837E-1,-1.9587772E-1,5.6317765E-1,1.4092396E0,-2.686524E-1,-1.42628355E-2,-0E0,6.7818984E-3,4.8419824E-3,-7.017518E-4,3.3374561E-3,-2.363388E-3,-1.4421521E-3,3.0913895E-3,3.1943033E-3,8.200096E-3,1.637388E-3,2.9372927E-3],"split_indices":[9,0,10,10,0,4,13,0,0,5,13,5,4,0,10,0,0,0,0,0,0,0,0,0,0,0,0],"split_type":[0,0,0,0,0,0,0,0,0,0,0,0,0,0,0,0,0,0,0,0,0,0,0,0,0,0,0],"sum_hessian":[1.1316528E3,1.7448433E2,9.571685E2,5.831993E0,1.6865233E2,9.2553444E1,8.6461505E2,1.9434707E0,3.8885224E0,1.2820337E2,4.044896E1,3.539022E1,5.7163223E1,4.282297E1,8.217921E2,1.9459932E0,1.2625738E2,3.266503E1,7.7839274E0,2.8118633E1,7.271589E0,5.4252712E1,2.9105132E0,2.2376068E1,2.0446903E1,3.709132E2,4.5087888E2],"tree_param":{"num_deleted":"0","num_feature":"14","num_nodes":"27","size_leaf_vector":"1"}},{"base_weights":[7.7697737E-3,-1.6774467E-1,5.004012E-2,1.5139992E-2,-2.3315616E-1,1.2732108E-1,-3.234244E-2,-1.0000926E-1,3.2008943E-1,6.339215E-2,-2.5087404E-1,1.6043441E-1,-2.2714144E-1,-1.8434872E-1,1.5425591E-2,2.1274404E-3,-2.8176839E-3,-0E0,5.316262E-3,2.546844E-3,-0E0,-3.6810865E-3,-1.4341929E-3,-2.590489E-3,1.7878873E-3,-3.0655004E-3,2.2387707E-3,1.7430679E-3,-2.2174635E-3,-8.98858E-5,4.6277037E-3],"categories":[],"categories_nodes":[],"categories_segments":[],"categories_sizes":[],"default_left":[0,0,0,0,0,0,0,0,0,0,0,0,0,0,0,0,0,0,0,0,0,0,0,0,0,0,0,0,0,0,0],"id":19,"left_children":[1,3,5,7,9,11,13,15,17,19,21,23,25,27,29,-1,-1,-1,-1,-1,-1,-1,-1,-1,-1,-1,-1,-1,-1,-1,-1],"loss_changes":[7.579755E0,2.5793982E0,5.4540787E0,2.0291998E0,1.0027313E0,5.174459E0,3.0945194E0,2.1909373E0,8.615905E-1,3.298613E-1,1.2005186E0,3.1418161E0,1.5045282E0,1.4836578E0,3.7693589E0,0E0,0E0,0E0,0E0,0E0,0E0,0E0,0E0,0E0,0E0,0E0,0E0,0E0,0E0,0E0,0E0],"parents":[2147483647,0,0,1,1,2,2,3,3,4,4,5,5,6,6,7,7,8,8,9,9,10,10,11,11,12,12,13,13,14,14],"right_children":[2,4,6,8,10,12,14,16,18,20,22,24,26,28,30,-1,-1,-1,-1,-1,-1,-1,-1,-1,-1,-1,-1,-1,-1,-1,-1],"split_conditions":[-8.715821E-1,-9.525149E-1,-1.42628355E-2,-1.2176117E0,-2.3274696E0,1.0919492E0,-3.8509628E-1,-6.8582445E-1,-4.7441465E-1,-1.2305866E-2,-8.3931334E-2,-1.5836799E0,-1.6762549E-1,-6.7347836E-1,4.54488E-1,2.1274404E-3,-2.8176839E-3,-0E0,5.316262E-3,2.546844E-3,-0E0,-3.6810865E-3,-1.4341929E-3,-2.590489E-3,1.7878873E-3,-3.0655004E-3,2.2387707E-3,1.7430679E-3,-2.2174635E-3,-8.98858E-5,4.6277037E-3],"split_indices":[13,10,10,12,7,7,3,7,3,12,7,7,10,11,5,0,0,0,0,0,0,0,0,0,0,0,0,0,0,0,0],"split_type":[0,0,0,0,0,0,0,0,0,0,0,0,0,0,0,0,0,0,0,0,0,0,0,0,0,0,0,0,0,0,0],"sum_hessian":[1.0332627E3,1.9480434E2,8.384584E2,4.7697018E1,1.4710733E2,4.3832474E2,4.0013364E2,3.3218525E1,1.4478493E1,4.8210216E0,1.422863E2,4.0445694E2,3.3867794E1,9.931425E1,3.008194E2,1.0062032E1,2.3156494E1,7.4562244E0,7.0222683E0,3.5080047E0,1.3130169E0,6.1275852E1,8.101045E1,1.3571564E1,3.9088538E2,3.122755E1,2.6402445E0,6.1615443E0,9.31527E1,2.8499023E2,1.5829149E1],"tree_param":{"num_deleted":"0","num_feature":"14","num_nodes":"31","size_leaf_vector":"1"}},{"base_weights":[-3.626264E-1,-3.1972688E-1,-4.303429E-1,2.3701426E-1,-3.2615867E-1,-3.6736655E-1,-5.484427E-1,5.485848E-3,-0E0,-3.6468288E-1,-2.5778976E-1,-4.1495752E-1,1.9056614E-1,-0E0,-5.718327E-1,-1.4661823E-3,-3.877035E-3,-2.9394557E-3,-0E0,-0E0,-4.20244E-3,3.7259092E-3,-5.2761694E-4,-2.4281577E-3,2.7330045E-3,-0E0,-5.8863843E-3],"categories":[],"categories_nodes":[],"categories_segments":[],"categories_sizes":[],"default_left":[0,0,0,0,0,0,0,0,0,0,0,0,0,0,0,0,0,0,0,0,0,0,0,0,0,0,0],"id":20,"left_children":[1,3,5,7,9,11,13,-1,-1,15,17,19,21,23,25,-1,-1,-1,-1,-1,-1,-1,-1,-1,-1,-1,-1],"loss_changes":[1.5858078E0,2.2742882E0,1.1635742E0,7.3944813E-1,6.7287827E-1,6.4700546E0,1.1622009E0,0E0,0E0,1.0891113E0,2.0845613E0,3.3498764E-1,1.1447899E0,5.8504856E-1,7.857399E-1,0E0,0E0,0E0,0E0,0E0,0E0,0E0,0E0,0E0,0E0,0E0,0E0],"parents":[2147483647,0,0,1,1,2,2,3,3,4,4,5,5,6,6,9,9,10,10,11,11,12,12,13,13,14,14],"right_children":[2,4,6,8,10,12,14,-1,-1,16,18,20,22,24,26,-1,-1,-1,-1,-1,-1,-1,-1,-1,-1,-1,-1],"split_conditions":[1.6804485E-2,-3.8238662E-1,1.4041136E-1,-6.521903E-2,1.2299237E-1,-3.2550808E-2,-8.573154E-1,5.485848E-3,-0E0,-3.636704E-1,1.3933457E-1,-1.4288168E0,7.7037984E-1,-9.388161E-1,-3.6625373E-1,-1.4661823E-3,-3.877035E-3,-2.9394557E-3,-0E0,-0E0,-4.20244E-3,3.7259092E-3,-5.2761694E-4,-2.4281577E-3,2.7330045E-3,-0E0,-5.8863843E-3],"split_indices":[2,0,12,7,11,12,10,0,0,5,5,10,9,10,5,0,0,0,0,0,0,0,0,0,0,0,0],"split_type":[0,0,0,0,0,0,0,0,0,0,0,0,0,0,0,0,0,0,0,0,0,0,0,0,0,0,0],"sum_hessian":[8.968156E2,5.6505475E2,3.3176086E2,3.858746E0,5.61196E2,2.2726253E2,1.04498344E2,1.5507041E0,2.308042E0,3.4404205E2,2.1715396E2,2.1152458E2,1.57379465E1,4.9799128E0,9.951843E1,3.8406906E1,3.0563516E2,1.906828E2,2.6471165E1,3.441439E0,2.0808315E2,1.074627E1,4.9916763E0,3.4462547E0,1.5336583E0,3.4463131E0,9.607212E1],"tree_param":{"num_deleted":"0","num_feature":"14","num_nodes":"27","size_leaf_vector":"1"}},{"base_weights":[2.72309E-1,1.9310732E-1,5.0943416E-1,1.6628246E-1,5.697488E-1,5.394698E-1,-4.9741533E-2,5.528713E-2,2.435523E-1,6.1453056E-1,-0E0,9.074207E-1,4.9651816E-1,-1.8809475E-1,2.1547E-3,2.7034117E-3,-1.7529761E-4,5.48448E-3,2.108759E-3,-0E0,6.6741724E-3,-2.4349103E-3,3.3631427E-3,-0E0,9.750034E-3,3.8233616E-3,6.7719417E-3,-3.4160828E-3,-0E0],"categories":[],"categories_nodes":[],"categories_segments":[],"categories_sizes":[],"default_left":[0,0,0,0,0,0,0,0,0,0,0,0,0,0,0,0,0,0,0,0,0,0,0,0,0,0,0,0,0],"id":21,"left_children":[1,3,5,7,9,11,13,15,17,19,21,23,25,27,-1,-1,-1,-1,-1,-1,-1,-1,-1,-1,-1,-1,-1,-1,-1],"loss_changes":[2.0716652E1,7.856022E0,5.309799E0,6.678602E0,1.2372189E0,1.9809494E0,5.8942455E-1,5.6349564E0,3.7476482E0,1.4509487E0,7.089505E-1,1.1349621E0,3.5738792E0,3.8901803E-1,0E0,0E0,0E0,0E0,0E0,0E0,0E0,0E0,0E0,0E0,0E0,0E0,0E0,0E0,0E0],"parents":[2147483647,0,0,1,1,2,2,3,3,4,4,5,5,6,6,7,7,8,8,9,9,10,10,11,11,12,12,13,13],"right_children":[2,4,6,8,10,12,14,16,18,20,22,24,26,28,-1,-1,-1,-1,-1,-1,-1,-1,-1,-1,-1,-1,-1,-1,-1],"split_conditions":[5.336019E-2,9.220433E-1,4.083989E0,1.0409486E-1,-1.1020994E-1,-6.3044804E-1,4.460673E-2,-7.133302E-1,-8.9328873E-1,-8.065424E-1,1.4741477E0,1.3177694E-1,1.7955844E-1,-9.6076065E-1,2.1547E-3,2.7034117E-3,-1.7529761E-4,5.48448E-3,2.108759E-3,-0E0,6.6741724E-3,-2.4349103E-3,3.3631427E-3,-0E0,9.750034E-3,3.8233616E-3,6.7719417E-3,-3.4160828E-3,-0E0],"split_indices":[8,1,8,13,8,1,7,13,7,11,10,8,10,10,0,0,0,0,0,0,0,0,0,0,0,0,0,0,0],"split_type":[0,0,0,0,0,0,0,0,0,0,0,0,0,0,0,0,0,0,0,0,0,0,0,0,0,0,0,0,0],"sum_hessian":[1.1489651E3,8.671695E2,2.8179562E2,8.146847E2,5.2484806E1,2.691949E2,1.260072E1,3.410916E2,4.7359305E2,4.8109478E1,4.3753276E0,2.1497604E1,2.4769728E2,1.1140939E1,1.459782E0,8.8380516E1,2.527111E2,3.9824883E1,4.337682E2,4.3694887E0,4.3739986E1,2.428888E0,1.9464394E0,1.9506866E0,1.9546919E1,1.5898834E2,8.870894E1,5.317629E0,5.8233094E0],"tree_param":{"num_deleted":"0","num_feature":"14","num_nodes":"29","size_leaf_vector":"1"}},{"base_weights":[-4.4307755E-3,5.2768737E-2,-1.8202794E-1,1.4967166E-1,-2.9514974E-2,4.724157E-2,-2.3070084E-1,-0E0,2.5080386E-1,-4.0217277E-1,4.0844423E-3,1.8444644E-1,-3.6913457E-3,-4.9731892E-1,-1.7065115E-1,-3.5767475E-4,2.4839896E-3,3.1660004E-3,-0E0,-0E0,-4.598116E-3,1.755869E-3,-6.603221E-4,-3.4631991E-3,3.7484441E-3,-0E0,-5.1754285E-3,-2.320835E-3,3.7144628E-4],"categories":[],"categories_nodes":[],"categories_segments":[],"categories_sizes":[],"default_left":[0,0,0,0,0,0,0,0,0,0,0,0,0,0,0,0,0,0,0,0,0,0,0,0,0,0,0,0,0],"id":22,"left_children":[1,3,5,7,9,11,13,15,17,19,21,23,-1,25,27,-1,-1,-1,-1,-1,-1,-1,-1,-1,-1,-1,-1,-1,-1],"loss_changes":[1.0565138E1,6.2917643E0,3.0454254E0,5.220606E0,5.5859895E0,2.3870134E0,2.5866003E0,1.5667841E0,3.652318E0,1.1710591E0,4.694418E0,3.8459535E0,0E0,3.7187862E-1,2.518507E0,0E0,0E0,0E0,0E0,0E0,0E0,0E0,0E0,0E0,0E0,0E0,0E0,0E0,0E0],"parents":[2147483647,0,0,1,1,2,2,3,3,4,4,5,5,6,6,7,7,8,8,9,9,10,10,11,11,13,13,14,14],"right_children":[2,4,6,8,10,12,14,16,18,20,22,24,-1,26,28,-1,-1,-1,-1,-1,-1,-1,-1,-1,-1,-1,-1,-1,-1],"split_conditions":[6.292367E-2,2.154336E-1,-8.7203336E-1,-4.8219523E-1,-8.9328873E-1,6.1946656E-3,-1.3201228E0,7.8394294E-1,5.402756E-1,-8.7203336E-1,-1.2629597E-1,-6.448743E-1,-3.6913457E-3,-4.1032007E-1,2.895437E-1,-3.5767475E-4,2.4839896E-3,3.1660004E-3,-0E0,-0E0,-4.598116E-3,1.755869E-3,-6.603221E-4,-3.4631991E-3,3.7484441E-3,-0E0,-5.1754285E-3,-2.320835E-3,3.7144628E-4],"split_indices":[8,13,11,13,7,1,7,10,7,11,7,1,0,2,1,0,0,0,0,0,0,0,0,0,0,0,0,0,0],"split_type":[0,0,0,0,0,0,0,0,0,0,0,0,0,0,0,0,0,0,0,0,0,0,0,0,0,0,0,0,0],"sum_hessian":[1.02341693E3,7.7090356E2,2.5251335E2,3.5883273E2,4.1207083E2,4.0632236E1,2.1188112E2,1.4933362E2,2.0949911E2,3.4727245E1,3.773436E2,3.3205894E1,7.4263415E0,3.3210674E1,1.7867044E2,1.2864973E2,2.0683887E1,1.6716306E2,4.2336067E1,3.091805E0,3.1635439E1,1.1276892E2,2.6457468E2,6.947781E0,2.6258116E1,1.3096981E0,3.1900974E1,1.4143541E2,3.723504E1],"tree_param":{"num_deleted":"0","num_feature":"14","num_nodes":"29","size_leaf_vector":"1"}},{"base_weights":[-3.6629942E-1,-5.2336466E-1,-3.336416E-1,-5.2851425E-3,-0E0,-3.9619583E-1,-2.813242E-1,-3.1095043E-1,-5.376195E-1,-3.471531E-1,-1.8764067E-1,-3.4624392E-3,-0E0,-0E0,-5.591559E-3,-3.55753E-3,3.9311944E-4,1.555996E-3,-2.2744844E-3],"categories":[],"categories_nodes":[],"categories_segments":[],"categories_sizes":[],"default_left":[0,0,0,0,0,0,0,0,0,0,0,0,0,0,0,0,0,0,0],"id":23,"left_children":[1,3,5,-1,-1,7,9,11,13,15,17,-1,-1,-1,-1,-1,-1,-1,-1],"loss_changes":[3.5396729E0,3.859291E-1,1.6416397E0,0E0,0E0,2.9180183E0,2.0397682E0,2.5124397E0,1.7730713E0,1.1718788E0,2.760912E0,0E0,0E0,0E0,0E0,0E0,0E0,0E0,0E0],"parents":[2147483647,0,0,1,1,2,2,5,5,6,6,7,7,8,8,9,9,10,10],"right_children":[2,4,6,-1,-1,8,10,12,14,16,18,-1,-1,-1,-1,-1,-1,-1,-1],"split_conditions":[-9.799895E-1,4.248751E0,-1.5436964E-1,-5.2851425E-3,-0E0,1.4041136E-1,5.094959E-1,-3.2550808E-2,-5.976974E-1,2.9311383E0,-1.4942336E-2,-3.4624392E-3,-0E0,-0E0,-5.591559E-3,-3.55753E-3,3.9311944E-4,1.555996E-3,-2.2744844E-3],"split_indices":[13,3,0,0,0,12,13,12,3,0,0,0,0,0,0,0,0,0,0],"split_type":[0,0,0,0,0,0,0,0,0,0,0,0,0,0,0,0,0,0,0],"sum_hessian":[9.232355E2,1.4847668E2,7.747588E2,1.4694023E2,1.5364461E0,3.3816534E2,4.3659344E2,2.1939178E2,1.18773575E2,2.4696936E2,1.8962408E2,1.9751523E2,2.1876564E1,3.4532604E0,1.1532031E2,2.4427994E2,2.689413E0,1.649122E1,1.7313287E2],"tree_param":{"num_deleted":"0","num_feature":"14","num_nodes":"19","size_leaf_vector":"1"}},{"base_weights":[2.7643594E-1,5.562282E-1,1.8569846E-1,6.7356783E-1,4.026905E-1,1.6404994E-1,4.8103873E-3,1.9343989E-1,7.269641E-1,1.908687E-1,4.947609E-1,6.514332E-2,2.0801334E-1,-7.847792E-4,4.7246786E-3,9.511065E-3,5.9556724E-3,3.1330471E-3,-2.4373545E-3,-6.9193955E-4,5.1828544E-3,2.8360535E-3,-0E0,1.7162564E-3,4.4260877E-3],"categories":[],"categories_nodes":[],"categories_segments":[],"categories_sizes":[],"default_left":[0,0,0,0,0,0,0,0,0,0,0,0,0,0,0,0,0,0,0,0,0,0,0,0,0],"id":24,"left_children":[1,3,5,7,9,11,-1,13,15,17,19,21,23,-1,-1,-1,-1,-1,-1,-1,-1,-1,-1,-1,-1],"loss_changes":[2.801001E1,3.3470078E0,4.7405643E0,2.6327896E0,1.6230507E0,3.2392445E0,0E0,1.9528509E0,1.207962E0,2.6352153E0,1.6447334E0,3.7448602E0,3.976738E0,0E0,0E0,0E0,0E0,0E0,0E0,0E0,0E0,0E0,0E0,0E0,0E0],"parents":[2147483647,0,0,1,1,2,2,3,3,4,4,5,5,7,7,8,8,9,9,10,10,11,11,12,12],"right_children":[2,4,6,8,10,12,-1,14,16,18,20,22,24,-1,-1,-1,-1,-1,-1,-1,-1,-1,-1,-1,-1],"split_conditions":[-7.238131E-1,-1.1775854E0,9.611014E-1,-1.3806465E0,-9.799895E-1,2.8249245E-2,4.8103873E-3,-5.997394E-1,-4.3333536E-1,1.8223664E-1,-2.06038E0,-2.6677486E-1,6.212792E-1,-7.847792E-4,4.7246786E-3,9.511065E-3,5.9556724E-3,3.1330471E-3,-2.4373545E-3,-6.9193955E-4,5.1828544E-3,2.8360535E-3,-0E0,1.7162564E-3,4.4260877E-3],"split_indices":[13,13,1,12,13,6,0,4,1,1,0,2,11,0,0,0,0,0,0,0,0,0,0,0,0],"split_type":[0,0,0,0,0,0,0,0,0,0,0,0,0,0,0,0,0,0,0,0,0,0,0,0,0],"sum_hessian":[1.138654E3,2.736288E2,8.6502527E2,1.4756598E2,1.2606283E2,8.1200214E2,5.302314E1,1.7568365E1,1.299976E2,4.3346085E1,8.271675E1,2.5839282E2,5.536093E2,7.8105063E0,9.757858E0,4.061961E1,8.9378E1,3.6049442E1,7.296641E0,1.4545803E0,8.126217E1,5.829785E1,2.0009496E2,4.859589E2,6.765041E1],"tree_param":{"num_deleted":"0","num_feature":"14","num_nodes":"25","size_leaf_vector":"1"}},{"base_weights":[1.0577464E-2,-2.7204347E-1,4.5112815E-2,-3.202946E-1,1.3813232E-1,-1.1931209E-1,1.1328451E-1,-1.0357473E-1,-4.679823E-1,-2.0313747E-3,4.203567E-3,-7.9925194E-2,-3.6218926E-1,2.3466933E-1,-7.807307E-3,-0E0,-3.441503E-3,-5.2632424E-3,-0E0,-1.4902109E-3,6.7388616E-4,-4.04684E-3,-0E0,1.1827844E-3,3.3528479E-3,-2.9063204E-3,1.7160797E-4],"categories":[],"categories_nodes":[],"categories_segments":[],"categories_sizes":[],"default_left":[0,0,0,0,0,0,0,0,0,0,0,0,0,0,0,0,0,0,0,0,0,0,0,0,0,0,0],"id":25,"left_children":[1,3,5,7,9,11,13,15,17,-1,-1,19,21,23,25,-1,-1,-1,-1,-1,-1,-1,-1,-1,-1,-1,-1],"loss_changes":[9.904669E0,2.4455166E0,1.0418877E1,2.5676222E0,1.4264885E0,2.069009E0,9.947448E0,1.4490457E0,1.1108761E0,0E0,0E0,2.5160007E0,8.0110455E-1,3.3823185E0,2.6049283E0,0E0,0E0,0E0,0E0,0E0,0E0,0E0,0E0,0E0,0E0,0E0,0E0],"parents":[2147483647,0,0,1,1,2,2,3,3,4,4,5,5,6,6,7,7,8,8,11,11,12,12,13,13,14,14],"right_children":[2,4,6,8,10,12,14,16,18,-1,-1,20,22,24,26,-1,-1,-1,-1,-1,-1,-1,-1,-1,-1,-1,-1],"split_conditions":[-2.69792E-1,1.3005133E0,-5.167892E-1,4.5630515E-2,-9.7912747E-1,1.064173E0,-2.048988E-2,-1.255279E-1,5.32914E-1,-2.0313747E-3,4.203567E-3,-1.6471921E-1,3.9805915E0,-6.6588056E-1,-1.0521979E0,-0E0,-3.441503E-3,-5.2632424E-3,-0E0,-1.4902109E-3,6.7388616E-4,-4.04684E-3,-0E0,1.1827844E-3,3.3528479E-3,-2.9063204E-3,1.7160797E-4],"split_indices":[2,9,9,11,7,11,10,5,7,0,0,11,10,11,7,0,0,0,0,0,0,0,0,0,0,0,0],"split_type":[0,0,0,0,0,0,0,0,0,0,0,0,0,0,0,0,0,0,0,0,0,0,0,0,0,0,0],"sum_hessian":[1.0335149E3,1.0788936E2,9.2562555E2,9.910711E1,8.782252E0,2.665524E2,6.590732E2,4.4289497E1,5.481761E1,2.6251075E0,6.1571445E0,2.3518793E2,3.1364485E1,3.3232568E2,3.2674747E2,2.9862314E1,1.4427184E1,4.6929638E1,7.8879714E0,1.6470155E2,7.048637E1,2.9617012E1,1.7474724E0,1.6070909E2,1.7161661E2,2.8028389E1,2.987191E2],"tree_param":{"num_deleted":"0","num_feature":"14","num_nodes":"27","size_leaf_vector":"1"}},{"base_weights":[-3.5937986E-1,-2.6594886E-1,-4.386771E-1,-2.8006256E-1,1.6482726E-1,-4.5219985E-1,1.2152197E-2,-3.26499E-1,-1.06421046E-1,4.750439E-1,-1.3382954E-3,-0E0,-4.5723924E-1,-1.6348821E-3,5.6118923E-3,-2.2035092E-3,-4.246255E-3,9.98394E-4,-2.0684684E-3,-0E0,7.5581875E-3,-4.5888377E-3,-0E0],"categories":[],"categories_nodes":[],"categories_segments":[],"categories_sizes":[],"default_left":[0,0,0,0,0,0,0,0,0,0,0,0,0,0,0,0,0,0,0,0,0,0,0],"id":26,"left_children":[1,3,5,7,9,11,13,15,17,19,-1,-1,21,-1,-1,-1,-1,-1,-1,-1,-1,-1,-1],"loss_changes":[5.6658936E0,2.7615547E0,3.3363419E0,2.8014297E0,1.6114392E0,1.4721375E0,1.8904427E0,2.4777946E0,2.0947046E0,1.498837E0,0E0,0E0,4.4950867E-1,0E0,0E0,0E0,0E0,0E0,0E0,0E0,0E0,0E0,0E0],"parents":[2147483647,0,0,1,1,2,2,3,3,4,4,5,5,6,6,7,7,8,8,9,9,12,12],"right_children":[2,4,6,8,10,12,14,16,18,20,-1,-1,22,-1,-1,-1,-1,-1,-1,-1,-1,-1,-1],"split_conditions":[-3.6850777E-1,-3.7633792E-1,3.6095517E0,8.2674935E-2,-8.968481E-2,-4.9163648E-1,9.8935366E-1,-2.4395503E-1,-5.7155687E-1,-3.3698264E-1,-1.3382954E-3,-0E0,6.2651916E0,-1.6348821E-3,5.6118923E-3,-2.2035092E-3,-4.246255E-3,9.98394E-4,-2.0684684E-3,-0E0,7.5581875E-3,-4.5888377E-3,-0E0],"split_indices":[8,8,8,11,11,2,0,1,8,1,0,0,3,0,0,0,0,0,0,0,0,0,0],"split_type":[0,0,0,0,0,0,0,0,0,0,0,0,0,0,0,0,0,0,0,0,0,0,0],"sum_hessian":[8.893512E2,4.180764E2,4.712748E2,4.0773862E2,1.0337786E1,4.5969806E2,1.1576729E1,3.1577286E2,9.196575E1,6.133748E0,4.204038E0,3.0795498E0,4.5661853E2,8.455004E0,3.1217253E0,1.5969998E2,1.5607289E2,2.685776E1,6.510799E1,2.296929E0,3.8368192E0,4.554719E2,1.1466217E0],"tree_param":{"num_deleted":"0","num_feature":"14","num_nodes":"23","size_leaf_vector":"1"}},{"base_weights":[2.6361653E-1,2.2944313E-1,4.3612483E-1,2.1300165E-1,5.985539E-1,5.958283E-1,2.9802477E-1,5.02983E-1,1.9361535E-1,-0E0,6.4982837E-3,2.2068693E-1,6.8100807E-3,1.351716E-1,4.7229317E-1,3.004089E-4,6.139436E-3,1.7330791E-3,4.357571E-3,-2.5015941E-3,3.712088E-3,3.3140164E-3,-2.9692234E-4,1.0405454E-3,6.8299454E-3],"categories":[],"categories_nodes":[],"categories_segments":[],"categories_sizes":[],"default_left":[0,0,0,0,0,0,0,0,0,0,0,0,0,0,0,0,0,0,0,0,0,0,0,0,0],"id":27,"left_children":[1,3,5,7,9,11,13,15,17,-1,-1,19,-1,21,23,-1,-1,-1,-1,-1,-1,-1,-1,-1,-1],"loss_changes":[5.99131E0,4.8801537E0,2.8369408E0,4.4143715E0,1.6144285E0,1.3716946E0,2.2932816E0,2.187501E0,3.6218987E0,0E0,0E0,1.7268319E0,0E0,2.2925344E0,2.7779722E0,0E0,0E0,0E0,0E0,0E0,0E0,0E0,0E0,0E0,0E0],"parents":[2147483647,0,0,1,1,2,2,3,3,4,4,5,5,6,6,7,7,8,8,11,11,13,13,14,14],"right_children":[2,4,6,8,10,12,14,16,18,-1,-1,20,-1,22,24,-1,-1,-1,-1,-1,-1,-1,-1,-1,-1],"split_conditions":[7.8211224E-1,1.4024324E0,-1.9703971E-1,-1.2377975E0,-1.2938201E0,9.7457325E-1,-6.521903E-2,-2.9630797E0,7.740526E-1,-0E0,6.4982837E-3,-4.5829168E-1,6.8100807E-3,-4.7310305E-1,1.6780318E-1,3.004089E-4,6.139436E-3,1.7330791E-3,4.357571E-3,-2.5015941E-3,3.712088E-3,3.3140164E-3,-2.9692234E-4,1.0405454E-3,6.8299454E-3],"split_indices":[11,7,3,7,12,11,7,7,1,0,0,7,0,7,3,0,0,0,0,0,0,0,0,0,0],"split_type":[0,0,0,0,0,0,0,0,0,0,0,0,0,0,0,0,0,0,0,0,0,0,0,0,0],"sum_hessian":[1.1611515E3,9.778909E2,1.8326054E2,9.4180304E2,3.6087856E1,7.855122E1,1.0470931E2,5.265864E1,8.891444E2,1.9503317E0,3.4137527E1,1.8036776E1,6.0514454E1,5.89295E1,4.577981E1,1.2202442E1,4.04562E1,8.273216E2,6.182284E1,2.4392207E0,1.5597554E1,2.875227E1,3.017723E1,1.9475908E1,2.6303905E1],"tree_param":{"num_deleted":"0","num_feature":"14","num_nodes":"25","size_leaf_vector":"1"}},{"base_weights":[2.6446627E-2,6.032565E-2,-1.5910177E-1,-1.9047569E-1,9.4329946E-2,7.960818E-2,-1.9793901E-1,8.255649E-2,-2.4266894E-1,-1.0215414E-1,1.276305E-1,3.0428547E-1,-2.6166444E-3,-2.7469537E-1,-0E0,-1.5726979E-3,4.8299795E-3,-2.7293728E-3,2.2386124E-3,-1.6346826E-3,2.2230144E-3,4.133221E-3,1.0128911E-3,-0E0,5.138111E-3,-4.4282074E-3,-1.3050328E-3,2.1514115E-3,-2.5690058E-3],"categories":[],"categories_nodes":[],"categories_segments":[],"categories_sizes":[],"default_left":[0,0,0,0,0,0,0,0,0,0,0,0,0,0,0,0,0,0,0,0,0,0,0,0,0,0,0,0,0],"id":28,"left_children":[1,3,5,7,9,11,13,15,17,19,21,23,-1,25,27,-1,-1,-1,-1,-1,-1,-1,-1,-1,-1,-1,-1,-1,-1],"loss_changes":[6.548775E0,7.5951204E0,1.6219964E0,1.6868472E0,5.2553005E0,1.7387146E0,1.9958E0,1.9335458E0,1.4586182E0,2.242262E0,4.5588636E0,1.2533826E0,0E0,1.7239671E0,2.5209422E0,0E0,0E0,0E0,0E0,0E0,0E0,0E0,0E0,0E0,0E0,0E0,0E0,0E0,0E0],"parents":[2147483647,0,0,1,1,2,2,3,3,4,4,5,5,6,6,7,7,8,8,9,9,10,10,11,11,13,13,14,14],"right_children":[2,4,6,8,10,12,14,16,18,20,22,24,-1,26,28,-1,-1,-1,-1,-1,-1,-1,-1,-1,-1,-1,-1,-1,-1],"split_conditions":[4.0921056E-1,-3.603966E-1,-3.7890163E-1,-1.0075843E0,-5.455877E-1,4.9623132E-1,1.2075192E0,-1.246095E0,2.2478169E-1,-6.3469553E-1,-1.0988413E0,1.6946611E0,-2.6166444E-3,-6.474219E-2,-1.8802266E-1,-1.5726979E-3,4.8299795E-3,-2.7293728E-3,2.2386124E-3,-1.6346826E-3,2.2230144E-3,4.133221E-3,1.0128911E-3,-0E0,5.138111E-3,-4.4282074E-3,-1.3050328E-3,2.1514115E-3,-2.5690058E-3],"split_indices":[1,5,5,10,3,3,1,12,3,4,10,4,0,2,5,0,0,0,0,0,0,0,0,0,0,0,0,0,0],"split_type":[0,0,0,0,0,0,0,0,0,0,0,0,0,0,0,0,0,0,0,0,0,0,0,0,0,0,0,0,0],"sum_hessian":[1.0524299E3,8.956362E2,1.5679378E2,1.02324295E2,7.933119E2,1.80434E1,1.3875038E2,1.3159832E1,8.916446E1,1.10016136E2,6.832958E2,1.2777973E1,5.265427E0,9.753119E1,4.1219185E1,7.428277E0,5.7315555E0,8.652421E1,2.640255E0,9.5957054E1,1.4059085E1,5.1997696E1,6.312981E2,4.8474755E0,7.9304976E0,3.991441E1,5.761678E1,2.1509789E1,1.9709398E1],"tree_param":{"num_deleted":"0","num_feature":"14","num_nodes":"29","size_leaf_vector":"1"}},{"base_weights":[-3.3899453E-1,-2.2816451E-1,-3.6423665E-1,-2.774379E-1,-0E0,-3.4626955E-1,-5.534155E-3,3.4077195E-3,-2.9875806E-1,1.5885091E-1,-4.17973E-3,-2.87358E-1,-4.1186392E-1,-4.464334E-3,-1.5291688E-3,4.004346E-3,-2.2217834E-3,-6.6520995E-4,-3.0252691E-3,-2.7812397E-4,-4.2696777E-3],"categories":[],"categories_nodes":[],"categories_segments":[],"categories_sizes":[],"default_left":[0,0,0,0,0,0,0,0,0,0,0,0,0,0,0,0,0,0,0,0,0],"id":29,"left_children":[1,3,5,7,9,11,-1,-1,13,15,-1,17,19,-1,-1,-1,-1,-1,-1,-1,-1],"loss_changes":[1.7403488E0,2.0662374E0,1.1536102E0,2.105794E0,2.2606084E0,1.633194E0,0E0,0E0,2.391717E0,2.71879E0,0E0,8.1310654E-1,1.2728729E0,0E0,0E0,0E0,0E0,0E0,0E0,0E0,0E0],"parents":[2147483647,0,0,1,1,2,2,3,3,4,4,5,5,8,8,9,9,11,11,12,12],"right_children":[2,4,6,8,10,12,-1,-1,14,16,-1,18,20,-1,-1,-1,-1,-1,-1,-1,-1],"split_conditions":[-2.0260468E-1,4.0635473E-1,8.3111435E-1,-2.5144956E0,1.4269049E0,4.9680245E-1,-5.534155E-3,3.4077195E-3,-4.9782496E-2,1.731507E0,-4.17973E-3,-1.1052964E0,-3.7227774E-1,-4.464334E-3,-1.5291688E-3,4.004346E-3,-2.2217834E-3,-6.6520995E-4,-3.0252691E-3,-2.7812397E-4,-4.2696777E-3],"split_indices":[2,3,1,7,10,6,0,0,7,0,0,6,5,0,0,0,0,0,0,0,0],"split_type":[0,0,0,0,0,0,0,0,0,0,0,0,0,0,0,0,0,0,0,0,0],"sum_hessian":[8.91254E2,1.764061E2,7.1484796E2,1.4550713E2,3.0898968E1,6.6284186E2,5.200607E1,2.288131E0,1.43219E2,2.3666336E1,7.232631E0,3.6291107E2,2.999308E2,6.570683E1,7.751216E1,1.6027222E1,7.639114E0,2.8255062E1,3.3465604E2,1.4069586E1,2.858612E2],"tree_param":{"num_deleted":"0","num_feature":"14","num_nodes":"21","size_leaf_vector":"1"}},{"base_weights":[2.93275E-1,2.1872354E-1,5.828721E-1,1.4920509E-1,3.4580848E-1,6.242999E-1,-5.2721582E-2,3.4157962E-1,1.1133741E-1,3.7000334E-1,-0E0,6.425812E-1,-0E0,-3.1213695E-3,3.768327E-2,1.8559812E-3,5.327123E-3,-4.1250142E-4,1.5283818E-3,-8.3173957E-4,3.884292E-3,-2.5753295E-3,1.1720561E-3,-0E0,6.528936E-3,2.8869717E-3,-5.588643E-4],"categories":[],"categories_nodes":[],"categories_segments":[],"categories_sizes":[],"default_left":[0,0,0,0,0,0,0,0,0,0,0,0,0,0,0,0,0,0,0,0,0,0,0,0,0,0,0],"id":30,"left_children":[1,3,5,7,9,11,13,15,17,19,21,23,-1,-1,25,-1,-1,-1,-1,-1,-1,-1,-1,-1,-1,-1,-1],"loss_changes":[2.3916687E1,7.581417E0,6.7689896E0,3.8934221E0,2.689499E0,2.0802765E0,6.407684E-1,1.9023199E0,3.3825202E0,2.873577E0,7.5477076E-1,1.3877869E0,0E0,0E0,4.9443284E-1,0E0,0E0,0E0,0E0,0E0,0E0,0E0,0E0,0E0,0E0,0E0,0E0],"parents":[2147483647,0,0,1,1,2,2,3,3,4,4,5,5,6,6,7,7,8,8,9,9,10,10,11,11,14,14],"right_children":[2,4,6,8,10,12,14,16,18,20,22,24,-1,-1,26,-1,-1,-1,-1,-1,-1,-1,-1,-1,-1,-1,-1],"split_conditions":[2.3765942E-1,2.682185E-1,4.083989E0,-7.238131E-1,1.44548E0,5.961203E-1,-2.531938E-1,-2.507576E-1,-2.8639126E-1,-1.3732358E0,7.2158766E-1,-1.414358E0,-0E0,-3.1213695E-3,-4.7441465E-1,1.8559812E-3,5.327123E-3,-4.1250142E-4,1.5283818E-3,-8.3173957E-4,3.884292E-3,-2.5753295E-3,1.1720561E-3,-0E0,6.528936E-3,2.8869717E-3,-5.588643E-4],"split_indices":[8,12,8,13,9,2,2,3,13,0,13,12,0,0,3,0,0,0,0,0,0,0,0,0,0,0,0],"split_type":[0,0,0,0,0,0,0,0,0,0,0,0,0,0,0,0,0,0,0,0,0,0,0,0,0,0,0],"sum_hessian":[1.1547106E3,9.238468E2,2.3086375E2,6.05074E2,3.187728E2,2.1824734E2,1.2616409E1,9.253442E1,5.1253955E2,2.9783856E2,2.093425E1,2.1093166E2,7.3156786E0,4.8514075E0,7.7650023E0,5.60041E1,3.653032E1,1.04443634E2,4.0809592E2,9.24174E0,2.885968E2,5.839436E0,1.5094814E1,3.4176445E0,2.0751402E2,3.8780541E0,3.8869479E0],"tree_param":{"num_deleted":"0","num_feature":"14","num_nodes":"27","size_leaf_vector":"1"}},{"base_weights":[1.2014427E-2,-1.9767675E-1,5.1034145E-2,-1.289179E-1,-4.5333052E-1,1.8262345E-1,-0E0,-3.244357E-1,-4.6498157E-2,-0E0,-4.9579003E-1,2.386654E-1,-1.4924431E-1,-2.5399265E-1,1.7726192E-2,-0E0,-3.8138067E-3,1.3881825E-3,-1.9138416E-3,-0E0,-5.520067E-3,2.913963E-3,-8.1846915E-4,3.1171632E-3,-3.4773885E-3,-3.6074992E-3,3.4407198E-3,7.8268524E-4,-3.9670581E-4],"categories":[],"categories_nodes":[],"categories_segments":[],"categories_sizes":[],"default_left":[0,0,0,0,0,0,0,0,0,0,0,0,0,0,0,0,0,0,0,0,0,0,0,0,0,0,0,0,0],"id":31,"left_children":[1,3,5,7,9,11,13,15,17,-1,19,21,23,25,27,-1,-1,-1,-1,-1,-1,-1,-1,-1,-1,-1,-1,-1,-1],"loss_changes":[8.449798E0,2.1281085E0,5.9680395E0,1.7360678E0,4.721694E-1,4.780442E0,2.8981023E0,6.02407E-1,2.7699516E0,0E0,8.077574E-1,3.9054203E0,3.4130392E0,2.9456682E0,2.140047E0,0E0,0E0,0E0,0E0,0E0,0E0,0E0,0E0,0E0,0E0,0E0,0E0,0E0,0E0],"parents":[2147483647,0,0,1,1,2,2,3,3,4,4,5,5,6,6,7,7,8,8,10,10,11,11,12,12,13,13,14,14],"right_children":[2,4,6,8,10,12,14,16,18,-1,20,22,24,26,28,-1,-1,-1,-1,-1,-1,-1,-1,-1,-1,-1,-1,-1,-1],"split_conditions":[-1.0118334E0,2.6502138E-1,-5.211363E-1,-6.6421455E-1,-2.1195753E0,1.0656992E0,-5.431561E-1,-1.743635E0,-5.109079E-1,-0E0,-2.0431218E0,1.3766997E0,-4.9394038E-1,9.700516E-1,-1.588574E-1,-0E0,-3.8138067E-3,1.3881825E-3,-1.9138416E-3,-0E0,-5.520067E-3,2.913963E-3,-8.1846915E-4,3.1171632E-3,-3.4773885E-3,-3.6074992E-3,3.4407198E-3,7.8268524E-4,-3.9670581E-4],"split_indices":[9,10,10,4,13,7,3,13,4,0,7,9,9,9,4,0,0,0,0,0,0,0,0,0,0,0,0,0,0],"split_type":[0,0,0,0,0,0,0,0,0,0,0,0,0,0,0,0,0,0,0,0,0,0,0,0,0,0,0,0,0],"sum_hessian":[1.0461752E3,1.5883562E2,8.873396E2,1.3062398E2,2.8211636E1,2.4639522E2,6.4094434E2,3.339586E1,9.722812E1,3.03219E0,2.5179445E1,2.1385655E2,3.2538666E1,3.998647E1,6.009579E2,5.639332E0,2.7756527E1,3.9669994E1,5.755812E1,2.6031568E0,2.2576288E1,1.8647864E2,2.7377907E1,7.9342833E0,2.4604383E1,3.6022038E1,3.964431E0,3.0058987E2,3.00368E2],"tree_param":{"num_deleted":"0","num_feature":"14","num_nodes":"29","size_leaf_vector":"1"}},{"base_weights":[-3.533447E-1,-4.0220994E-1,-3.0143473E-1,2.1503013E-2,-4.100878E-1,-0E0,-3.0659172E-1,2.4721935E-1,-6.9583964E-4,-4.3003107E-3,-2.1180978E-1,-6.9435925E-4,2.5667206E-3,-4.5251768E-2,-3.1684893E-1,-0E0,4.392565E-3,-2.740793E-3,9.710229E-4,-2.095194E-3,4.717404E-3,-2.951115E-3,-5.0091897E-3],"categories":[],"categories_nodes":[],"categories_segments":[],"categories_sizes":[],"default_left":[0,0,0,0,0,0,0,0,0,0,0,0,0,0,0,0,0,0,0,0,0,0,0],"id":32,"left_children":[1,3,5,7,9,11,13,15,-1,-1,17,-1,-1,19,21,-1,-1,-1,-1,-1,-1,-1,-1],"loss_changes":[1.3240509E0,1.8919373E0,9.8734283E-1,3.7051037E-1,9.1348267E-1,3.2672644E-1,8.082657E-1,3.9879388E-1,0E0,0E0,1.1665998E0,0E0,0E0,1.8809237E0,6.144028E-1,0E0,0E0,0E0,0E0,0E0,0E0,0E0,0E0],"parents":[2147483647,0,0,1,1,2,2,3,3,4,4,5,5,6,6,7,7,10,10,13,13,14,14],"right_children":[2,4,6,8,10,12,14,16,-1,-1,18,-1,-1,20,22,-1,-1,-1,-1,-1,-1,-1,-1],"split_conditions":[-7.482009E-2,-3.2098637E0,-2.9630797E0,-1.9733225E-1,5.820339E-1,6.940486E-1,-1.4942336E-2,-3.4422498E0,-6.9583964E-4,-4.3003107E-3,-2.3406336E-1,-6.9435925E-4,2.5667206E-3,1.0118561E0,1.3796875E0,-0E0,4.392565E-3,-2.740793E-3,9.710229E-4,-2.095194E-3,4.717404E-3,-2.951115E-3,-5.0091897E-3],"split_indices":[0,6,7,7,5,0,0,6,0,0,0,0,0,4,3,0,0,0,0,0,0,0,0],"split_type":[0,0,0,0,0,0,0,0,0,0,0,0,0,0,0,0,0,0,0,0,0,0,0],"sum_hessian":[8.92969E2,4.4309894E2,4.4987006E2,5.707752E0,4.3739117E2,4.5695896E0,4.4530048E2,3.8119462E0,1.8958061E0,3.9071136E2,4.6679813E1,1.8952817E0,2.6743078E0,2.0908037E1,4.2439246E2,1.904098E0,1.9078481E0,4.1730583E1,4.9492307E0,1.823715E1,2.6708877E0,3.890835E2,3.530895E1],"tree_param":{"num_deleted":"0","num_feature":"14","num_nodes":"23","size_leaf_vector":"1"}},{"base_weights":[2.6748744E-1,1.8522951E-1,5.1357406E-1,9.4523326E-2,3.1173626E-1,5.382172E-1,-1.3002014E-1,6.449623E-2,4.1359225E-1,2.6784676E-1,5.5547076E-1,5.601589E-1,-7.590214E-2,-2.3185058E-1,-0E0,2.1730363E-3,1.4955334E-4,-0E0,5.7520834E-3,3.5765672E-3,2.5953448E-4,-5.921048E-4,6.3197454E-3,3.879869E-3,6.822076E-3,-0E0,-2.2118627E-3,-0E0,-3.7341705E-3],"categories":[],"categories_nodes":[],"categories_segments":[],"categories_sizes":[],"default_left":[0,0,0,0,0,0,0,0,0,0,0,0,0,0,0,0,0,0,0,0,0,0,0,0,0,0,0,0,0],"id":33,"left_children":[1,3,5,7,9,11,13,15,17,19,21,23,25,27,-1,-1,-1,-1,-1,-1,-1,-1,-1,-1,-1,-1,-1,-1,-1],"loss_changes":[2.2669426E1,9.614647E0,5.106163E0,4.4416656E0,2.7445831E0,4.324379E0,3.164156E-1,3.3923783E0,2.759746E0,6.4094563E0,2.9894629E0,4.092369E0,3.0367842E-1,5.9056205E-1,0E0,0E0,0E0,0E0,0E0,0E0,0E0,0E0,0E0,0E0,0E0,0E0,0E0,0E0,0E0],"parents":[2147483647,0,0,1,1,2,2,3,3,4,4,5,5,6,6,7,7,8,8,9,9,10,10,11,11,12,12,13,13],"right_children":[2,4,6,8,10,12,14,16,18,20,22,24,26,28,-1,-1,-1,-1,-1,-1,-1,-1,-1,-1,-1,-1,-1,-1,-1],"split_conditions":[6.292367E-2,1.1553429E-1,4.6597214E0,1.1535783E0,6.5517235E-1,5.961203E-1,7.8211224E-1,-1.4125897E-1,5.338349E-1,2.1770807E-1,-6.14098E-1,6.556943E-1,-4.492803E-1,-6.29562E-1,-0E0,2.1730363E-3,1.4955334E-4,-0E0,5.7520834E-3,3.5765672E-3,2.5953448E-4,-5.921048E-4,6.3197454E-3,3.879869E-3,6.822076E-3,-0E0,-2.2118627E-3,-0E0,-3.7341705E-3],"split_indices":[8,10,8,4,1,2,11,2,1,4,8,8,3,4,0,0,0,0,0,0,0,0,0,0,0,0,0,0,0],"split_type":[0,0,0,0,0,0,0,0,0,0,0,0,0,0,0,0,0,0,0,0,0,0,0,0,0,0,0,0,0],"sum_hessian":[1.1618086E3,8.764214E2,2.8538718E2,5.170745E2,3.5934683E2,2.766746E2,8.712589E0,4.7766098E2,3.9413563E1,3.11547E2,4.779985E1,2.6887222E2,7.8023777E0,7.2552743E0,1.4573151E0,1.10345505E2,3.6731546E2,1.16615505E1,2.775201E1,2.2348169E2,8.80653E1,3.893974E0,4.3905876E1,1.183995E2,1.5047272E2,2.4408388E0,5.361539E0,1.4521039E0,5.80317E0],"tree_param":{"num_deleted":"0","num_feature":"14","num_nodes":"29","size_leaf_vector":"1"}},{"base_weights":[7.056897E-3,8.895826E-2,-2.4770585E-1,5.102068E-1,7.346128E-2,2.5994638E-1,-2.699001E-1,-0E0,5.7947606E-1,9.515806E-2,-1.5072602E-1,5.0024635E-1,-0E0,-3.535802E-1,-1.2676091E-1,-0E0,6.4130095E-3,2.6882865E-4,1.7251564E-3,2.593607E-4,-3.1282098E-3,6.142274E-3,-0E0,1.4846377E-3,-3.73447E-3,-0E0,-2.386317E-3],"categories":[],"categories_nodes":[],"categories_segments":[],"categories_sizes":[],"default_left":[0,0,0,0,0,0,0,0,0,0,0,0,0,0,0,0,0,0,0,0,0,0,0,0,0,0,0],"id":34,"left_children":[1,3,5,7,9,11,13,-1,15,17,19,21,-1,23,25,-1,-1,-1,-1,-1,-1,-1,-1,-1,-1,-1,-1],"loss_changes":[2.1259958E1,4.430902E0,2.930605E0,1.4484801E0,3.6533222E0,1.0697372E0,2.2963333E0,0E0,1.0606608E0,3.4627247E0,2.1206195E0,3.7209117E-1,0E0,1.7869778E0,1.3772242E0,0E0,0E0,0E0,0E0,0E0,0E0,0E0,0E0,0E0,0E0,0E0,0E0],"parents":[2147483647,0,0,1,1,2,2,3,3,4,4,5,5,6,6,8,8,9,9,10,10,11,11,13,13,14,14],"right_children":[2,4,6,8,10,12,14,-1,16,18,20,22,-1,24,26,-1,-1,-1,-1,-1,-1,-1,-1,-1,-1,-1,-1],"split_conditions":[6.292367E-2,-1.2071563E0,-1.9605454E0,-6.8862605E-1,7.1074337E-1,2.8249245E-2,-9.1665454E-2,-0E0,-1.8556685E0,-4.552958E-2,-4.653408E-1,2.018784E0,-0E0,-1.4017884E0,5.7016927E-1,-0E0,6.4130095E-3,2.6882865E-4,1.7251564E-3,2.593607E-4,-3.1282098E-3,6.142274E-3,-0E0,1.4846377E-3,-3.73447E-3,-0E0,-2.386317E-3],"split_indices":[8,12,0,1,1,6,1,0,0,2,8,5,0,12,8,0,0,0,0,0,0,0,0,0,0,0,0],"split_type":[0,0,0,0,0,0,0,0,0,0,0,0,0,0,0,0,0,0,0,0,0,0,0,0,0,0,0],"sum_hessian":[1.02240485E3,7.776364E2,2.4476843E2,2.3037678E1,7.5459875E2,7.468102E0,2.3730032E2,1.3145092E0,2.1723167E1,6.931295E2,6.146924E1,4.831334E0,2.6367676E0,1.4348907E2,9.381124E1,1.7745941E0,1.9948574E1,3.764764E2,3.166531E2,2.7264887E1,3.420435E1,3.5174778E0,1.3138564E0,3.053155E0,1.4043593E2,4.4590836E1,4.922041E1],"tree_param":{"num_deleted":"0","num_feature":"14","num_nodes":"27","size_leaf_vector":"1"}},{"base_weights":[-3.5995305E-1,-2.801806E-1,-4.321185E-1,-2.9425132E-1,1.0475798E-1,-2.9933972E-2,-4.3952435E-1,-2.2675513E-1,-3.9258373E-1,-2.0857195E-3,3.1046283E-1,-3.647272E-3,1.9200312E-3,-3.7936705E-1,-5.0953585E-1,-1.7437716E-3,-5.6523904E-3,7.547383E-4,-4.027683E-3,6.016011E-3,-5.525988E-4,-5.1498604E-3,-3.0882726E-3,-5.256251E-3,-0E0],"categories":[],"categories_nodes":[],"categories_segments":[],"categories_sizes":[],"default_left":[0,0,0,0,0,0,0,0,0,0,0,0,0,0,0,0,0,0,0,0,0,0,0,0,0],"id":35,"left_children":[1,3,5,7,9,11,13,15,17,-1,19,-1,-1,21,23,-1,-1,-1,-1,-1,-1,-1,-1,-1,-1],"loss_changes":[4.2670135E0,2.650959E0,8.920288E-1,2.0596962E0,1.1719741E0,1.2796341E0,6.405029E-1,3.7796535E0,1.1815453E0,0E0,1.8415481E0,0E0,0E0,1.3472557E0,1.6996002E0,0E0,0E0,0E0,0E0,0E0,0E0,0E0,0E0,0E0,0E0],"parents":[2147483647,0,0,1,1,2,2,3,3,4,4,5,5,6,6,7,7,8,8,10,10,13,13,14,14],"right_children":[2,4,6,8,10,12,14,16,18,-1,20,-1,-1,22,24,-1,-1,-1,-1,-1,-1,-1,-1,-1,-1],"split_conditions":[-3.4155044E-1,1.3900944E0,-3.297728E0,4.9680245E-1,-8.884271E-2,-1.3405931E0,1.6744873E-1,8.3111435E-1,-1.0912379E0,-2.0857195E-3,-4.339216E-1,-3.647272E-3,1.9200312E-3,-1.1576862E0,2.8906124E0,-1.7437716E-3,-5.6523904E-3,7.547383E-4,-4.027683E-3,6.016011E-3,-5.525988E-4,-5.1498604E-3,-3.0882726E-3,-5.256251E-3,-0E0],"split_indices":[8,11,6,6,1,13,12,1,13,0,8,0,0,13,8,0,0,0,0,0,0,0,0,0,0],"split_type":[0,0,0,0,0,0,0,0,0,0,0,0,0,0,0,0,0,0,0,0,0,0,0,0,0],"sum_hessian":[9.0500446E2,4.4106677E2,4.6393768E2,4.284737E2,1.2593089E1,1.1012289E1,4.5292538E2,2.6402576E2,1.6444795E2,3.053216E0,9.539873E0,5.6732225E0,5.339066E0,2.5819357E2,1.9473183E2,2.3382733E2,3.0198416E1,1.1380365E0,1.6330992E2,6.115741E0,3.4241323E0,7.918181E1,1.7901175E2,1.8902399E2,5.707839E0],"tree_param":{"num_deleted":"0","num_feature":"14","num_nodes":"25","size_leaf_vector":"1"}},{"base_weights":[2.7518764E-1,1.9900714E-1,5.031126E-1,1.3233764E-1,2.9082128E-1,5.4691905E-1,-1.5135713E-1,6.3055265E-1,1.14788406E-1,7.716868E-1,2.4971734E-1,5.64732E-1,-0E0,1.8363044E-1,-4.012952E-1,-0E0,7.1681337E-3,7.847606E-5,1.8350884E-3,-0E0,8.591104E-3,3.109231E-4,3.0735868E-3,2.3113075E-3,6.0929796E-3,8.883994E-4,-2.3268422E-3,-2.3375414E-4,4.9825893E-3,-0E0,-5.061191E-3],"categories":[],"categories_nodes":[],"categories_segments":[],"categories_sizes":[],"default_left":[0,0,0,0,0,0,0,0,0,0,0,0,0,0,0,0,0,0,0,0,0,0,0,0,0,0,0,0,0,0,0],"id":36,"left_children":[1,3,5,7,9,11,13,15,17,19,21,23,25,27,29,-1,-1,-1,-1,-1,-1,-1,-1,-1,-1,-1,-1,-1,-1,-1,-1],"loss_changes":[1.9189667E1,4.8490067E0,8.739975E0,3.623519E0,5.701483E0,3.1509094E0,1.8747267E0,1.0132017E0,3.502736E0,1.8244762E0,3.8789806E0,2.7791977E0,3.5848063E-1,9.780035E-1,7.076633E-1,0E0,0E0,0E0,0E0,0E0,0E0,0E0,0E0,0E0,0E0,0E0,0E0,0E0,0E0,0E0,0E0],"parents":[2147483647,0,0,1,1,2,2,3,3,4,4,5,5,6,6,7,7,8,8,9,9,10,10,11,11,12,12,13,13,14,14],"right_children":[2,4,6,8,10,12,14,16,18,20,22,24,26,28,30,-1,-1,-1,-1,-1,-1,-1,-1,-1,-1,-1,-1,-1,-1,-1,-1],"split_conditions":[6.292367E-2,1.04249336E-1,4.083989E0,-1.1775854E0,-1.0521979E0,1.0756134E0,-3.576933E-1,-1.3732358E0,1.0409486E-1,-2.3359046E0,-5.325044E-1,-1.2044175E0,-1.7147013E0,-1.0528334E0,-5.5255663E-1,-0E0,7.1681337E-3,7.847606E-5,1.8350884E-3,-0E0,8.591104E-3,3.109231E-4,3.0735868E-3,2.3113075E-3,6.0929796E-3,8.883994E-4,-2.3268422E-3,-2.3375414E-4,4.9825893E-3,-0E0,-5.061191E-3],"split_indices":[8,10,8,13,7,13,13,0,13,6,8,10,7,0,3,0,0,0,0,0,0,0,0,0,0,0,0,0,0,0,0],"split_type":[0,0,0,0,0,0,0,0,0,0,0,0,0,0,0,0,0,0,0,0,0,0,0,0,0,0,0,0,0,0,0],"sum_hessian":[1.1551461E3,8.7187024E2,2.8327588E2,5.1423804E2,3.576322E2,2.672447E2,1.6031185E1,1.318137E1,5.0105667E2,2.3447584E1,3.3418463E2,2.604072E2,6.837484E0,5.3672104E0,1.0663975E1,1.4620825E0,1.1719288E1,2.0258295E2,2.9847372E2,2.4436555E0,2.1003927E1,7.39877E1,2.6019693E2,3.4790688E1,2.2561652E2,2.9358869E0,3.9015973E0,2.4369245E0,2.9302862E0,1.9398972E0,8.724077E0],"tree_param":{"num_deleted":"0","num_feature":"14","num_nodes":"31","size_leaf_vector":"1"}},{"base_weights":[2.0506604E-2,-2.0653662E-1,6.51266E-2,2.935296E-2,-2.5671032E-1,2.4420728E-1,4.3698173E-2,-2.3427857E-1,1.8538162E-1,-3.9092666E-1,-1.7466028E-1,-1.279495E-2,4.0140086E-1,2.1810556E-2,2.184178E-1,1.2162535E-4,-4.104711E-3,-2.7531534E-3,4.5154262E-3,-0E0,-4.7571957E-3,-3.4539297E-3,-3.82078E-4,1.7643828E-3,-1.7430971E-3,4.618327E-3,-0E0,-1.9122108E-3,3.9743862E-4,-0E0,3.546963E-3],"categories":[],"categories_nodes":[],"categories_segments":[],"categories_sizes":[],"default_left":[0,0,0,0,0,0,0,0,0,0,0,0,0,0,0,0,0,0,0,0,0,0,0,0,0,0,0,0,0,0,0],"id":37,"left_children":[1,3,5,7,9,11,13,15,17,19,21,23,25,27,29,-1,-1,-1,-1,-1,-1,-1,-1,-1,-1,-1,-1,-1,-1,-1,-1],"loss_changes":[1.0559793E1,2.2527952E0,3.0899453E0,1.1934777E0,8.810978E-1,4.004199E0,2.804093E0,7.9669136E-1,3.0178316E0,1.8796825E0,1.8605869E0,1.0799981E0,1.6955576E0,2.6027958E0,2.251825E0,0E0,0E0,0E0,0E0,0E0,0E0,0E0,0E0,0E0,0E0,0E0,0E0,0E0,0E0,0E0,0E0],"parents":[2147483647,0,0,1,1,2,2,3,3,4,4,5,5,6,6,7,7,8,8,9,9,10,10,11,11,12,12,13,13,14,14],"right_children":[2,4,6,8,10,12,14,16,18,20,22,24,26,28,30,-1,-1,-1,-1,-1,-1,-1,-1,-1,-1,-1,-1,-1,-1,-1,-1],"split_conditions":[-1.0118334E0,-1.3637813E0,-9.001826E-1,-1.4066588E0,-1.7031236E0,-5.0136435E-1,4.7310323E-1,-3.540467E-1,-6.0483795E-1,1.6075099E-1,3.1531775E-1,-2.22771E-1,-6.5465075E-1,-5.431561E-1,-4.1446933E-1,1.2162535E-4,-4.104711E-3,-2.7531534E-3,4.5154262E-3,-0E0,-4.7571957E-3,-3.4539297E-3,-3.82078E-4,1.7643828E-3,-1.7430971E-3,4.618327E-3,-0E0,-1.9122108E-3,3.9743862E-4,-0E0,3.546963E-3],"split_indices":[9,12,11,12,9,3,5,5,1,6,6,5,12,3,0,0,0,0,0,0,0,0,0,0,0,0,0,0,0,0,0],"split_type":[0,0,0,0,0,0,0,0,0,0,0,0,0,0,0,0,0,0,0,0,0,0,0,0,0,0,0,0,0,0,0],"sum_hessian":[1.0516622E3,1.6785979E2,8.838025E2,2.609138E1,1.417684E2,8.724261E1,7.965599E2,6.9449124E0,1.9146467E1,4.6305614E1,9.546279E1,3.1392822E1,5.5849785E1,7.1496704E2,8.1592804E1,1.3053908E0,5.6395216E0,5.6100845E0,1.3536383E1,7.379626E0,3.892599E1,3.778911E1,5.7673683E1,1.1519829E1,1.9872993E1,4.965033E1,6.1994543E0,4.96835E1,6.6528357E2,3.3996128E1,4.7596676E1],"tree_param":{"num_deleted":"0","num_feature":"14","num_nodes":"31","size_leaf_vector":"1"}},{"base_weights":[-3.514868E-1,-5.56787E-3,-3.1968954E-1,-2.5213802E-1,-4.124804E-1,-1.6843164E-1,-3.4295425E-1,-2.5677645E-1,-5.007544E-1,-1.9999687E-3,1.8436387E-3,-0E0,-3.6892411E-3,2.0038283E-3,-2.888697E-3,-0E0,-5.086867E-3],"categories":[],"categories_nodes":[],"categories_segments":[],"categories_sizes":[],"default_left":[0,0,0,0,0,0,0,0,0,0,0,0,0,0,0,0,0],"id":38,"left_children":[1,-1,3,5,7,9,11,13,15,-1,-1,-1,-1,-1,-1,-1,-1],"loss_changes":[4.6088867E0,0E0,4.0399094E0,2.9074287E0,3.3945694E0,2.8911576E0,1.9792023E0,2.0275497E0,9.0493774E-1,0E0,0E0,0E0,0E0,0E0,0E0,0E0,0E0],"parents":[2147483647,0,0,2,2,3,3,4,4,5,5,6,6,7,7,8,8],"right_children":[2,-1,4,6,8,10,12,14,16,-1,-1,-1,-1,-1,-1,-1,-1],"split_conditions":[-1.1576862E0,-5.56787E-3,1.5109709E-1,5.93075E-1,-2.905337E-1,3.4580293E-1,-1.4599144E0,-8.409918E-1,-6.8862605E-1,-1.9999687E-3,1.8436387E-3,-0E0,-3.6892411E-3,2.0038283E-3,-2.888697E-3,-0E0,-5.086867E-3],"split_indices":[13,0,12,6,5,5,9,13,1,0,0,0,0,0,0,0,0],"split_type":[0,0,0,0,0,0,0,0,0,0,0,0,0,0,0,0,0],"sum_hessian":[8.9281866E2,1.11090294E2,7.817284E2,4.6292886E2,3.1879953E2,2.495949E2,2.1333395E2,1.22272545E2,1.96527E2,2.3249396E2,1.7100927E1,1.4707455E1,1.9862651E2,5.2887692E0,1.1698377E2,2.6460917E0,1.938809E2],"tree_param":{"num_deleted":"0","num_feature":"14","num_nodes":"17","size_leaf_vector":"1"}},{"base_weights":[2.8373155E-1,5.277671E-1,2.304711E-1,-1.0394844E-3,5.436659E-1,6.512232E-1,2.1310794E-1,8.516995E-1,4.9277622E-1,-0E0,6.8919268E-3,1.5406978E-1,2.9263735E-1,-0E0,9.288556E-3,-3.4781254E-4,5.066875E-3,-7.3459465E-4,1.7322113E-3,2.3087442E-3,4.0700305E-3],"categories":[],"categories_nodes":[],"categories_segments":[],"categories_sizes":[],"default_left":[0,0,0,0,0,0,0,0,0,0,0,0,0,0,0,0,0,0,0,0,0],"id":39,"left_children":[1,3,5,-1,7,9,11,13,15,-1,-1,17,19,-1,-1,-1,-1,-1,-1,-1,-1],"loss_changes":[1.3497269E1,2.5105171E0,5.5981026E0,0E0,8.26004E-1,1.0013523E0,3.6478882E0,1.7081089E0,1.7717896E0,0E0,0E0,2.4040823E0,1.7897949E0,0E0,0E0,0E0,0E0,0E0,0E0,0E0,0E0],"parents":[2147483647,0,0,1,1,2,2,4,4,5,5,6,6,7,7,8,8,11,11,12,12],"right_children":[2,4,6,-1,8,10,12,14,16,-1,-1,18,20,-1,-1,-1,-1,-1,-1,-1,-1],"split_conditions":[-9.6490574E-1,-2.06038E0,-1.4064018E0,-1.0394844E-3,-5.880186E-1,-1.2938201E0,1.4765689E-1,-1.4064018E0,-5.831171E-1,-0E0,6.8919268E-3,-1.1681839E0,2.4389045E-1,-0E0,9.288556E-3,-3.4781254E-4,5.066875E-3,-7.3459465E-4,1.7322113E-3,2.3087442E-3,4.0700305E-3],"split_indices":[9,0,7,0,3,12,10,7,3,0,0,12,7,0,0,0,0,0,0,0,0],"split_type":[0,0,0,0,0,0,0,0,0,0,0,0,0,0,0,0,0,0,0,0,0],"sum_hessian":[1.11351E3,1.9292903E2,9.20581E2,2.920316E0,1.9000871E2,3.130793E1,8.892731E2,1.9691849E1,1.7031686E2,1.4607838E0,2.9847147E1,5.209773E2,3.682958E2,1.4742407E0,1.8217607E1,2.4518216E0,1.6786504E2,3.5952583E1,4.850247E2,2.4874374E2,1.1955205E2],"tree_param":{"num_deleted":"0","num_feature":"14","num_nodes":"21","size_leaf_vector":"1"}},{"base_weights":[-3.7913837E-3,5.4230057E-2,-2.1730882E-1,8.584975E-2,-1.9960624E-1,3.1926367E-1,-2.4643253E-1,1.4436382E-1,7.543345E-3,-2.8971058E-1,1.801404E-2,4.6646097E-1,-0E0,-2.7143943E-1,9.083277E-2,1.5491387E-3,-3.8006003E-3,2.8111693E-3,-3.3400807E-4,-3.498012E-3,1.5045521E-3,3.3371304E-3,-1.9860973E-3,-0E0,5.3791883E-3,-1.8462919E-3,-4.77397E-3,4.411506E-3,-0E0],"categories":[],"categories_nodes":[],"categories_segments":[],"categories_sizes":[],"default_left":[0,0,0,0,0,0,0,0,0,0,0,0,0,0,0,0,0,0,0,0,0,0,0,0,0,0,0,0,0],"id":40,"left_children":[1,3,5,7,9,11,13,15,17,19,21,23,-1,25,27,-1,-1,-1,-1,-1,-1,-1,-1,-1,-1,-1,-1,-1,-1],"loss_changes":[1.3131735E1,6.4985147E0,3.6374235E0,3.2076678E0,2.0053437E0,9.634502E-1,2.0731478E0,2.1747866E0,3.8866625E0,2.0374699E0,1.9339615E0,3.0104113E-1,0E0,2.8577604E0,7.8814554E-1,0E0,0E0,0E0,0E0,0E0,0E0,0E0,0E0,0E0,0E0,0E0,0E0,0E0,0E0],"parents":[2147483647,0,0,1,1,2,2,3,3,4,4,5,5,6,6,7,7,8,8,9,9,10,10,11,11,13,13,14,14],"right_children":[2,4,6,8,10,12,14,16,18,20,22,24,-1,26,28,-1,-1,-1,-1,-1,-1,-1,-1,-1,-1,-1,-1,-1,-1],"split_conditions":[1.3177694E-1,1.2385689E0,-1.9605454E0,-1.42628355E-2,3.1531775E-1,3.1531775E-1,1.3428763E0,2.1221697E0,-1.563466E0,1.2694957E0,1.5793179E0,-5.3829867E-1,-0E0,2.6502138E-1,2.986387E-1,1.5491387E-3,-3.8006003E-3,2.8111693E-3,-3.3400807E-4,-3.498012E-3,1.5045521E-3,3.3371304E-3,-1.9860973E-3,-0E0,5.3791883E-3,-1.8462919E-3,-4.77397E-3,4.411506E-3,-0E0],"split_indices":[8,0,0,10,6,6,9,3,6,9,0,1,0,10,8,0,0,0,0,0,0,0,0,0,0,0,0,0,0],"split_type":[0,0,0,0,0,0,0,0,0,0,0,0,0,0,0,0,0,0,0,0,0,0,0,0,0,0,0,0,0],"sum_hessian":[1.0429202E3,8.1756323E2,2.2535687E2,7.316827E2,8.588057E1,8.808522E0,2.1654836E2,4.104892E2,3.2119348E2,6.351514E1,2.236543E1,7.4912205E0,1.3173018E0,2.0472423E2,1.1824124E1,4.056447E2,4.8444686E0,4.3465435E1,2.7772806E2,5.824597E1,5.2691684E0,1.0540043E1,1.1825387E1,1.3137823E0,6.177438E0,1.5010422E2,5.462001E1,2.6358602E0,9.188265E0],"tree_param":{"num_deleted":"0","num_feature":"14","num_nodes":"29","size_leaf_vector":"1"}},{"base_weights":[-3.4966564E-1,-5.422152E-1,-3.185687E-1,-0E0,-5.4958516E-1,-3.502003E-1,-2.1185865E-1,-5.567674E-3,-0E0,-2.624947E-1,-4.0475583E-1,1.3602835E-1,-2.533262E-1,-3.1957473E-3,-6.514413E-4,-0E0,-4.1190814E-3,-0E0,5.954775E-3,-3.0622168E-3,-5.300957E-4],"categories":[],"categories_nodes":[],"categories_segments":[],"categories_sizes":[],"default_left":[0,0,0,0,0,0,0,0,0,0,0,0,0,0,0,0,0,0,0,0,0],"id":41,"left_children":[1,3,5,-1,7,9,11,-1,-1,13,15,17,19,-1,-1,-1,-1,-1,-1,-1,-1],"loss_changes":[4.152878E0,5.995827E-1,1.9220123E0,0E0,4.552803E-1,1.94944E0,2.9360018E0,0E0,0E0,2.2712116E0,1.1019287E0,1.7034967E0,1.4475193E0,0E0,0E0,0E0,0E0,0E0,0E0,0E0,0E0],"parents":[2147483647,0,0,1,1,2,2,4,4,5,5,6,6,9,9,10,10,11,11,12,12],"right_children":[2,4,6,-1,8,10,12,-1,-1,14,16,18,20,-1,-1,-1,-1,-1,-1,-1,-1],"split_conditions":[-1.1576862E0,-2.253888E0,8.3778507E-1,-0E0,2.300741E0,-3.6881393E-1,8.826554E-1,-5.567674E-3,-0E0,-5.858645E-1,-6.292281E-1,8.6835027E-1,8.810381E-1,-3.1957473E-3,-6.514413E-4,-0E0,-4.1190814E-3,-0E0,5.954775E-3,-3.0622168E-3,-5.300957E-4],"split_indices":[13,0,13,0,5,10,13,0,0,10,8,13,0,0,0,0,0,0,0,0,0],"split_type":[0,0,0,0,0,0,0,0,0,0,0,0,0,0,0,0,0,0,0,0,0],"sum_hessian":[8.9302167E2,1.151282E2,7.778935E2,1.1352401E0,1.1399295E2,5.8928076E2,1.8861273E2,1.1248835E2,1.5046018E0,2.3746912E2,3.5181165E2,1.70338E1,1.7157892E2,1.7930318E2,5.8165928E1,5.685766E0,3.461259E2,1.3236477E1,3.7973223E0,1.3095068E2,4.062824E1],"tree_param":{"num_deleted":"0","num_feature":"14","num_nodes":"21","size_leaf_vector":"1"}},{"base_weights":[2.5311354E-1,1.8143907E-1,4.7762683E-1,1.9003123E-1,-1.0343474E-1,8.35638E-1,4.29475E-1,1.3221574E-1,2.5267723E-1,6.212562E-4,-3.3139473E-1,-0E0,8.849797E-3,4.475237E-1,-2.0202066E-4,3.5269442E-4,1.9678113E-3,1.9316718E-3,3.9419723E-3,-0E0,-4.2153145E-3,3.2318037E-3,5.9480197E-3],"categories":[],"categories_nodes":[],"categories_segments":[],"categories_sizes":[],"default_left":[0,0,0,0,0,0,0,0,0,0,0,0,0,0,0,0,0,0,0,0,0,0,0],"id":42,"left_children":[1,3,5,7,9,11,13,15,17,-1,19,-1,-1,21,-1,-1,-1,-1,-1,-1,-1,-1,-1],"loss_changes":[1.7538628E1,2.260212E0,2.7002754E0,2.6289196E0,1.1942396E0,4.190464E-1,2.4422302E0,2.6010013E0,2.6099434E0,0E0,5.1653016E-1,0E0,0E0,3.0700493E0,0E0,0E0,0E0,0E0,0E0,0E0,0E0,0E0,0E0],"parents":[2147483647,0,0,1,1,2,2,3,3,4,4,5,5,6,6,7,7,8,8,10,10,13,13],"right_children":[2,4,6,8,10,12,14,16,18,-1,20,-1,-1,22,-1,-1,-1,-1,-1,-1,-1,-1,-1],"split_conditions":[1.18336536E-1,1.5048894E0,-6.3044804E-1,1.2299923E-2,-9.428732E-2,4.5814654E-1,4.6597214E0,1.4801751E-1,-2.6630515E-1,6.212562E-4,-5.7081586E-1,-0E0,8.849797E-3,1.0932446E0,-2.0202066E-4,3.5269442E-4,1.9678113E-3,1.9316718E-3,3.9419723E-3,-0E0,-4.2153145E-3,3.2318037E-3,5.9480197E-3],"split_indices":[8,5,1,0,0,6,8,9,8,0,3,0,0,8,0,0,0,0,0,0,0,0,0],"split_type":[0,0,0,0,0,0,0,0,0,0,0,0,0,0,0,0,0,0,0,0,0,0,0],"sum_hessian":[1.1396335E3,8.6997107E2,2.6966248E2,8.4855383E2,2.1417261E1,2.5629524E1,2.4403294E2,4.528271E2,3.9572675E2,1.0708334E1,1.0708926E1,2.4600105E0,2.3169514E1,2.3676337E2,7.2695775E0,1.8844847E2,2.6437863E2,2.868856E2,1.0884115E2,1.9470987E0,8.761827E0,1.3552315E2,1.0124021E2],"tree_param":{"num_deleted":"0","num_feature":"14","num_nodes":"23","size_leaf_vector":"1"}},{"base_weights":[-0E0,5.3176943E-2,-2.4520268E-1,1.4532807E-1,-6.3102E-3,-3.058914E-1,3.494931E-1,5.570119E-3,2.788935E-1,1.0655289E-1,-8.724129E-2,-1.2660392E-1,-3.6582753E-1,1.8559912E-2,7.908604E-3,-1.8190866E-3,1.0978765E-3,-3.5411008E-3,3.169811E-3,2.445955E-3,1.0955738E-4,-2.51718E-3,-1.174639E-4,-2.4155996E-4,-3.5503788E-3,-3.7874614E-3,1.2297633E-4,3.125281E-3,-2.8797947E-3],"categories":[],"categories_nodes":[],"categories_segments":[],"categories_sizes":[],"default_left":[0,0,0,0,0,0,0,0,0,0,0,0,0,0,0,0,0,0,0,0,0,0,0,0,0,0,0,0,0],"id":43,"left_children":[1,3,5,7,9,11,13,15,17,19,21,23,25,27,-1,-1,-1,-1,-1,-1,-1,-1,-1,-1,-1,-1,-1,-1,-1],"loss_changes":[1.317452E1,4.7516923E0,6.6508236E0,5.996522E0,4.625461E0,1.193655E0,1.5033557E0,3.293449E0,4.2483034E0,2.4740572E0,3.470943E0,7.436025E-1,9.561615E-1,1.3315836E0,0E0,0E0,0E0,0E0,0E0,0E0,0E0,0E0,0E0,0E0,0E0,0E0,0E0,0E0,0E0],"parents":[2147483647,0,0,1,1,2,2,3,3,4,4,5,5,6,6,7,7,8,8,9,9,10,10,11,11,12,12,13,13],"right_children":[2,4,6,8,10,12,14,16,18,20,22,24,26,28,-1,-1,-1,-1,-1,-1,-1,-1,-1,-1,-1,-1,-1,-1,-1],"split_conditions":[3.211614E-1,9.174362E-3,4.9041495E-1,-1.0675066E-1,-5.622503E-1,-1.6790464E0,4.9680245E-1,-7.936746E-1,-2.8641624E0,3.136247E-1,-4.8503083E-1,-1.6602583E-1,4.1471243E0,-3.8014773E-1,7.908604E-3,-1.8190866E-3,1.0978765E-3,-3.5411008E-3,3.169811E-3,2.445955E-3,1.0955738E-4,-2.51718E-3,-1.174639E-4,-2.4155996E-4,-3.5503788E-3,-3.7874614E-3,1.2297633E-4,3.125281E-3,-2.8797947E-3],"split_indices":[8,13,13,9,8,13,6,13,6,6,8,12,4,6,0,0,0,0,0,0,0,0,0,0,0,0,0,0,0],"split_type":[0,0,0,0,0,0,0,0,0,0,0,0,0,0,0,0,0,0,0,0,0,0,0,0,0,0,0,0,0],"sum_hessian":[1.0166782E3,8.391167E2,1.7756154E2,3.3464487E2,5.044718E2,1.6352646E2,1.4035076E1,1.6820827E2,1.664366E2,2.0524977E2,2.9922205E2,4.6710384E1,1.1681607E2,1.0506893E1,3.5281837E0,5.61367E1,1.1207157E2,7.014143E0,1.5942245E2,7.8425415E1,1.2682435E2,8.849918E1,2.1072285E2,3.679687E1,9.913512E0,1.1551099E2,1.3050859E0,7.008736E0,3.498157E0],"tree_param":{"num_deleted":"0","num_feature":"14","num_nodes":"29","size_leaf_vector":"1"}},{"base_weights":[-3.4717125E-1,-2.4749589E-1,-4.0995342E-1,-2.8775203E-1,1.0741267E-2,-4.129741E-3,-0E0,-2.341044E-1,-4.64264E-1,2.6035893E-1,-1.598613E-1,-2.565244E-3,1.2858468E-3,-0E0,-4.7626887E-3,4.737457E-3,-1.8952104E-3,1.4294804E-3,-2.8320972E-3],"categories":[],"categories_nodes":[],"categories_segments":[],"categories_sizes":[],"default_left":[0,0,0,0,0,0,0,0,0,0,0,0,0,0,0,0,0,0,0],"id":44,"left_children":[1,3,5,7,9,-1,-1,11,13,15,17,-1,-1,-1,-1,-1,-1,-1,-1],"loss_changes":[4.652115E0,3.93857E0,1.0607681E0,1.9973145E0,2.1426594E0,0E0,0E0,2.1804438E0,4.817257E-1,2.5580676E0,1.199233E0,0E0,0E0,0E0,0E0,0E0,0E0,0E0,0E0],"parents":[2147483647,0,0,1,1,2,2,3,3,4,4,7,7,8,8,9,9,10,10],"right_children":[2,4,6,8,10,-1,-1,12,14,16,18,-1,-1,-1,-1,-1,-1,-1,-1],"split_conditions":[-4.1851282E-1,4.1855133E-1,6.2651916E0,1.5403895E-1,-2.2818346E-1,-4.129741E-3,-0E0,8.362409E-2,-1.5836799E0,1.9124694E0,-5.7155687E-1,-2.565244E-3,1.2858468E-3,-0E0,-4.7626887E-3,4.737457E-3,-1.8952104E-3,1.4294804E-3,-2.8320972E-3],"split_indices":[8,11,3,1,2,0,0,1,7,0,8,0,0,0,0,0,0,0,0],"split_type":[0,0,0,0,0,0,0,0,0,0,0,0,0,0,0,0,0,0,0],"sum_hessian":[8.788937E2,3.496262E2,5.2926746E2,3.0562643E2,4.399977E1,5.277437E2,1.5237509E0,2.4230122E2,6.3325203E1,1.9815708E1,2.4184065E1,2.3134311E2,1.0958104E1,1.1279675E0,6.2197235E1,1.4876307E1,4.9394016E0,4.561381E0,1.9622683E1],"tree_param":{"num_deleted":"0","num_feature":"14","num_nodes":"19","size_leaf_vector":"1"}},{"base_weights":[2.3955351E-1,5.9996367E-1,1.8933895E-1,6.158289E-1,-7.769246E-4,1.37981E-1,2.9751164E-1,6.303552E-1,-0E0,3.85915E-3,1.8360731E-1,7.957214E-2,3.417714E-1,-0E0,6.374903E-3,4.1548902E-4,-5.1786257E-3,1.3828097E-3,3.7338478E-3,1.9559246E-3,-2.2353968E-3,1.1977375E-3,3.9440487E-3],"categories":[],"categories_nodes":[],"categories_segments":[],"categories_sizes":[],"default_left":[0,0,0,0,0,0,0,0,0,0,0,0,0,0,0,0,0,0,0,0,0,0,0],"id":45,"left_children":[1,3,5,7,-1,9,11,13,-1,15,17,19,21,-1,-1,-1,-1,-1,-1,-1,-1,-1,-1],"loss_changes":[1.9731995E1,2.10503E0,5.102497E0,1.6705627E0,0E0,4.06995E0,2.588541E0,4.1225815E-1,0E0,3.18996E0,3.8037453E0,2.1711078E0,2.424984E0,0E0,0E0,0E0,0E0,0E0,0E0,0E0,0E0,0E0,0E0],"parents":[2147483647,0,0,1,1,2,2,3,3,5,5,6,6,7,7,9,9,10,10,11,11,12,12],"right_children":[2,4,6,8,-1,10,12,14,-1,16,18,20,22,-1,-1,-1,-1,-1,-1,-1,-1,-1,-1],"split_conditions":[-1.1775854E0,6.4739525E-1,4.025109E-1,4.248751E0,-7.769246E-4,8.2875006E-2,-3.1616352E-2,-7.843778E-1,-0E0,9.4118935E-1,1.5506908E-1,-1.7600395E-1,-1.563466E0,-0E0,6.374903E-3,4.1548902E-4,-5.1786257E-3,1.3828097E-3,3.7338478E-3,1.9559246E-3,-2.2353968E-3,1.1977375E-3,3.9440487E-3],"split_indices":[13,2,12,3,0,6,10,1,0,10,2,10,6,0,0,0,0,0,0,0,0,0,0],"split_type":[0,0,0,0,0,0,0,0,0,0,0,0,0,0,0,0,0,0,0,0,0,0,0],"sum_hessian":[1.1444624E3,1.3484132E2,1.00962103E3,1.3337686E2,1.4644548E0,6.939464E2,3.156746E2,1.3141364E2,1.9632356E0,1.8226164E2,5.1168478E2,5.8044975E1,2.576296E2,1.955358E0,1.2945827E2,1.7348627E2,8.775384E0,4.200798E2,9.1605E1,4.4876434E1,1.3168539E1,5.4271896E1,2.0335773E2],"tree_param":{"num_deleted":"0","num_feature":"14","num_nodes":"23","size_leaf_vector":"1"}},{"base_weights":[-1.4478194E-2,-2.1283887E-1,2.9736627E-2,-2.5072053E-1,-0E0,2.573658E-1,-2.0051615E-3,-0E0,-2.9368567E-1,1.3009918E-1,-3.5256604E-3,-7.099492E-3,3.7217203E-1,-2.9942968E-1,1.2563845E-2,1.8551068E-3,-2.118261E-3,-3.1232445E-3,-0E0,-1.5918396E-3,2.562666E-3,7.961934E-4,-4.247443E-3,-0E0,4.7073266E-3,-4.6577943E-3,4.9830053E-4,7.342883E-4,-9.879101E-4],"categories":[],"categories_nodes":[],"categories_segments":[],"categories_sizes":[],"default_left":[0,0,0,0,0,0,0,0,0,0,0,0,0,0,0,0,0,0,0,0,0,0,0,0,0,0,0,0,0],"id":46,"left_children":[1,3,5,7,9,11,13,15,17,19,-1,21,23,25,27,-1,-1,-1,-1,-1,-1,-1,-1,-1,-1,-1,-1,-1,-1],"loss_changes":[9.256367E0,1.7555017E0,6.343106E0,1.5806112E0,1.1919955E0,3.6180573E0,3.489872E0,1.2336569E0,7.831001E-1,1.0366535E0,0E0,1.5610218E0,3.202201E0,2.65398E0,4.7451544E0,0E0,0E0,0E0,0E0,0E0,0E0,0E0,0E0,0E0,0E0,0E0,0E0,0E0,0E0],"parents":[2147483647,0,0,1,1,2,2,3,3,4,4,5,5,6,6,7,7,8,8,9,9,11,11,12,12,13,13,14,14],"right_children":[2,4,6,8,10,12,14,16,18,20,-1,22,24,26,28,-1,-1,-1,-1,-1,-1,-1,-1,-1,-1,-1,-1,-1,-1],"split_conditions":[-8.715821E-1,-4.1401505E-2,-8.5102916E-1,-1.347204E0,1.0159831E0,-6.4557165E-1,-1.2705462E0,-1.743635E0,3.0256119E0,-3.6850777E-1,-3.5256604E-3,3.8105932E-1,-5.8908165E-1,-6.560796E-2,2.7658632E-1,1.8551068E-3,-2.118261E-3,-3.1232445E-3,-0E0,-1.5918396E-3,2.562666E-3,7.961934E-4,-4.247443E-3,-0E0,4.7073266E-3,-4.6577943E-3,4.9830053E-4,7.342883E-4,-9.879101E-4],"split_indices":[13,9,11,12,9,8,7,13,8,8,0,5,1,5,7,0,0,0,0,0,0,0,0,0,0,0,0,0,0],"split_type":[0,0,0,0,0,0,0,0,0,0,0,0,0,0,0,0,0,0,0,0,0,0,0,0,0,0,0,0,0],"sum_hessian":[1.0310796E3,1.9066951E2,8.404101E2,1.6477338E2,2.5896135E1,1.04965004E2,7.354451E2,2.6901619E1,1.3787177E2,2.150762E1,4.388515E0,2.9704447E1,7.526055E1,3.572184E1,6.9972327E2,1.2623841E1,1.4277778E1,1.297034E2,8.168356E0,3.9656432E0,1.7541977E1,2.3954857E1,5.74959E0,1.4515109E1,6.0745445E1,2.5684479E1,1.0037362E1,4.586779E2,2.4104536E2],"tree_param":{"num_deleted":"0","num_feature":"14","num_nodes":"29","size_leaf_vector":"1"}},{"base_weights":[-3.649845E-1,-5.5479836E-1,-3.3190984E-1,-0E0,-5.676992E-1,-3.653407E-1,-2.2361581E-1,-2.4790524E-2,-5.8881915E-1,-3.7092912E-1,-0E0,-1.4165744E-1,-3.6020377E-1,1.2317598E-3,-2.8308274E-3,-0E0,-5.9679393E-3,-0E0,-3.7546335E-3,-3.7042366E-3,1.6098532E-4,1.0005081E-3,-4.4009285E-3],"categories":[],"categories_nodes":[],"categories_segments":[],"categories_sizes":[],"default_left":[0,0,0,0,0,0,0,0,0,0,0,0,0,0,0,0,0,0,0,0,0,0,0],"id":47,"left_children":[1,3,5,-1,7,9,11,13,15,17,-1,19,21,-1,-1,-1,-1,-1,-1,-1,-1,-1,-1],"loss_changes":[4.285866E0,4.6081161E-1,2.0030289E0,0E0,7.260628E-1,1.5183182E0,1.5425081E0,5.480486E-1,5.4039E-1,1.222084E0,0E0,4.9750466E0,2.8560915E0,0E0,0E0,0E0,0E0,0E0,0E0,0E0,0E0,0E0,0E0],"parents":[2147483647,0,0,1,1,2,2,4,4,5,5,6,6,7,7,8,8,9,9,11,11,12,12],"right_children":[2,4,6,-1,8,10,12,14,16,18,-1,20,22,-1,-1,-1,-1,-1,-1,-1,-1,-1,-1],"split_conditions":[-1.1190425E0,-7.5657403E-1,8.100508E-1,-0E0,-1.4288168E0,2.4442368E0,6.0266834E-1,-7.634136E-1,-1.0058894E0,-7.358811E-1,-0E0,-2.3111142E-1,-1.111014E0,1.2317598E-3,-2.8308274E-3,-0E0,-5.9679393E-3,-0E0,-3.7546335E-3,-3.7042366E-3,1.6098532E-4,1.0005081E-3,-4.4009285E-3],"split_indices":[13,1,13,0,10,0,6,0,11,1,0,6,10,0,0,0,0,0,0,0,0,0,0],"split_type":[0,0,0,0,0,0,0,0,0,0,0,0,0,0,0,0,0,0,0,0,0,0,0],"sum_hessian":[8.8057764E2,1.2150183E2,7.590758E2,4.1194572E0,1.1738238E2,5.6933734E2,1.8973843E2,6.3311234E0,1.11051254E2,5.632868E2,6.0505633E0,1.25705505E2,6.4032936E1,2.2289057E0,4.1022177E0,1.483887E0,1.0956737E2,4.9018846E0,5.583849E2,5.2792458E1,7.291305E1,7.5446744E0,5.648826E1],"tree_param":{"num_deleted":"0","num_feature":"14","num_nodes":"23","size_leaf_vector":"1"}},{"base_weights":[2.6373658E-1,1.7239842E-1,3.8869646E-1,1.5739538E-1,6.5301716E-1,4.0296948E-1,-1.1444439E-1,6.7826346E-2,2.330972E-1,7.27174E-3,-0E0,3.049071E-1,5.157798E-1,-3.742925E-3,5.6661393E-2,-1.087548E-3,1.3300292E-3,4.516241E-3,1.6774982E-3,1.6961248E-3,4.4507715E-3,5.358582E-3,-0E0,5.0650374E-3,-2.4286227E-3],"categories":[],"categories_nodes":[],"categories_segments":[],"categories_sizes":[],"default_left":[0,0,0,0,0,0,0,0,0,0,0,0,0,0,0,0,0,0,0,0,0,0,0,0,0],"id":48,"left_children":[1,3,5,7,9,11,13,15,17,-1,-1,19,21,-1,23,-1,-1,-1,-1,-1,-1,-1,-1,-1,-1],"loss_changes":[1.2727142E1,3.9422092E0,3.9023361E0,4.2202396E0,1.0828571E0,4.166191E0,9.448125E-1,3.6949148E0,4.3274384E0,0E0,0E0,4.2789173E0,2.4381714E0,0E0,1.4995655E0,0E0,0E0,0E0,0E0,0E0,0E0,0E0,0E0,0E0,0E0],"parents":[2147483647,0,0,1,1,2,2,3,3,4,4,5,5,6,6,7,7,8,8,11,11,12,12,14,14],"right_children":[2,4,6,8,10,12,14,16,18,-1,-1,20,22,-1,24,-1,-1,-1,-1,-1,-1,-1,-1,-1,-1],"split_conditions":[-2.5253674E-1,3.216344E0,4.6597214E0,3.1531775E-1,1.3918678E0,2.986387E-1,-9.69246E-1,-2.806527E-1,-8.129257E-1,7.27174E-3,-0E0,1.7475283E-1,5.961203E-1,-3.742925E-3,-1.0712715E-1,-1.087548E-3,1.3300292E-3,4.516241E-3,1.6774982E-3,1.6961248E-3,4.4507715E-3,5.358582E-3,-0E0,5.0650374E-3,-2.4286227E-3],"split_indices":[8,3,8,6,9,8,10,10,0,0,0,12,2,0,12,0,0,0,0,0,0,0,0,0,0],"split_type":[0,0,0,0,0,0,0,0,0,0,0,0,0,0,0,0,0,0,0,0,0,0,0,0,0],"sum_hessian":[1.1739884E3,6.856104E2,4.8837805E2,6.694484E2,1.6161955E1,4.772259E2,1.1152174E1,3.1442642E2,3.55022E2,1.4694375E1,1.4675801E0,2.6400494E2,2.1322093E2,5.8053265E0,5.3468475E0,8.027079E1,2.3415564E2,7.548129E1,2.795407E2,1.4021819E2,1.2378676E2,2.0588567E2,7.335269E0,2.9191973E0,2.4276505E0],"tree_param":{"num_deleted":"0","num_feature":"14","num_nodes":"25","size_leaf_vector":"1"}},{"base_weights":[3.1738453E-2,7.028972E-2,-1.6571395E-1,-2.9833013E-1,8.662724E-2,1.5399347E-1,-2.3553877E-1,-4.5850044E-1,-3.1453032E-2,-6.3841775E-2,1.07347205E-1,2.9383266E-1,-3.1430915E-3,-3.1930733E-1,-0E0,-0E0,-4.930509E-3,2.2467964E-4,-3.1595256E-3,8.208779E-4,-2.7340185E-3,1.47151E-3,3.2598924E-4,-2.1481626E-3,4.8601925E-3,-1.7381302E-3,-4.3110163E-3,-2.6018017E-3,1.2057691E-3],"categories":[],"categories_nodes":[],"categories_segments":[],"categories_sizes":[],"default_left":[0,0,0,0,0,0,0,0,0,0,0,0,0,0,0,0,0,0,0,0,0,0,0,0,0,0,0,0,0],"id":49,"left_children":[1,3,5,7,9,11,13,15,17,19,21,23,-1,25,27,-1,-1,-1,-1,-1,-1,-1,-1,-1,-1,-1,-1,-1,-1],"loss_changes":[7.88387E0,5.140216E0,3.8841205E0,9.860048E-1,2.6975799E0,2.0367372E0,2.5161304E0,3.215871E-1,5.7909465E-1,3.230595E0,2.0450087E0,2.8942423E0,0E0,8.9010143E-1,1.4724715E0,0E0,0E0,0E0,0E0,0E0,0E0,0E0,0E0,0E0,0E0,0E0,0E0,0E0,0E0],"parents":[2147483647,0,0,1,1,2,2,3,3,4,4,5,5,6,6,7,7,8,8,9,9,10,10,11,11,13,13,14,14],"right_children":[2,4,6,8,10,12,14,16,18,20,22,24,-1,26,28,-1,-1,-1,-1,-1,-1,-1,-1,-1,-1,-1,-1,-1,-1],"split_conditions":[5.1488215E-1,-3.4636316E-1,-9.001826E-1,5.413456E-1,-3.6271372E-1,1.2239883E-1,1.198635E-1,-8.812961E-1,1.5382948E0,-7.774883E-2,-4.4001374E-2,-5.880186E-1,-3.1430915E-3,-7.774883E-2,-1.1159244E0,-0E0,-4.930509E-3,2.2467964E-4,-3.1595256E-3,8.208779E-4,-2.7340185E-3,1.47151E-3,3.2598924E-4,-2.1481626E-3,4.8601925E-3,-1.7381302E-3,-4.3110163E-3,-2.6018017E-3,1.2057691E-3],"split_indices":[8,2,11,11,5,3,2,12,11,2,5,3,0,2,12,0,0,0,0,0,0,0,0,0,0,0,0,0,0],"split_type":[0,0,0,0,0,0,0,0,0,0,0,0,0,0,0,0,0,0,0,0,0,0,0,0,0,0,0,0,0],"sum_hessian":[1.0431859E3,8.78096E2,1.6508987E2,3.320348E1,8.448925E2,2.6593515E1,1.3849635E2,1.751094E1,1.569254E1,9.591682E1,7.489757E2,2.2696604E1,3.8969133E0,9.912734E1,3.9369007E1,1.315777E0,1.6195164E1,1.1785879E1,3.906661E0,5.444682E1,4.1469997E1,4.7873282E2,2.7024286E2,4.732528E0,1.7964075E1,4.9178574E1,4.9948772E1,1.3839328E1,2.552968E1],"tree_param":{"num_deleted":"0","num_feature":"14","num_nodes":"29","size_leaf_vector":"1"}},{"base_weights":[-3.4663203E-1,-2.5988495E-1,-4.3333063E-1,-2.7756023E-1,1.5176748E-1,-4.4180664E-1,1.2266831E-2,-2.5170118E-1,-5.8471607E-3,-2.353482E-3,3.4957573E-1,-4.457288E-1,-0E0,3.7161356E-3,-1.7121093E-3,-1.6035808E-3,-3.710677E-3,-4.5797453E-5,5.376987E-3,-3.9961417E-3,-5.6556454E-3],"categories":[],"categories_nodes":[],"categories_segments":[],"categories_sizes":[],"default_left":[0,0,0,0,0,0,0,0,0,0,0,0,0,0,0,0,0,0,0,0,0],"id":50,"left_children":[1,3,5,7,9,11,13,15,-1,-1,17,19,-1,-1,-1,-1,-1,-1,-1,-1,-1],"loss_changes":[5.683792E0,3.4811401E0,2.0655441E0,2.3171654E0,1.6167148E0,1.178482E0,8.403235E-1,3.7861557E0,0E0,0E0,1.4759856E0,9.204254E-1,0E0,0E0,0E0,0E0,0E0,0E0,0E0,0E0,0E0],"parents":[2147483647,0,0,1,1,2,2,3,3,4,4,5,5,6,6,7,7,10,10,11,11],"right_children":[2,4,6,8,10,12,14,16,-1,-1,18,20,-1,-1,-1,-1,-1,-1,-1,-1,-1],"split_conditions":[-3.2833973E-1,1.161964E0,4.6597214E0,8.77219E-1,-8.7203336E-1,6.2651916E0,-1.0521979E0,5.93075E-1,-5.8471607E-3,-2.353482E-3,1.755925E-1,6.556943E-1,-0E0,3.7161356E-3,-1.7121093E-3,-1.6035808E-3,-3.710677E-3,-4.5797453E-5,5.376987E-3,-3.9961417E-3,-5.6556454E-3],"split_indices":[8,7,8,1,11,3,7,6,0,0,6,8,0,0,0,0,0,0,0,0,0],"split_type":[0,0,0,0,0,0,0,0,0,0,0,0,0,0,0,0,0,0,0,0,0],"sum_hessian":[8.7585944E2,4.4756927E2,4.2829016E2,4.320969E2,1.5472401E1,4.225144E2,5.7757564E0,4.0490317E2,2.7193697E1,3.3944387E0,1.2077962E1,4.210081E2,1.506325E0,3.101281E0,2.6744754E0,2.367777E2,1.6812549E2,3.0228555E0,9.055106E0,3.163037E2,1.0470437E2],"tree_param":{"num_deleted":"0","num_feature":"14","num_nodes":"21","size_leaf_vector":"1"}},{"base_weights":[2.639689E-1,1.924394E-1,4.8123267E-1,1.4684282E-1,3.0733794E-1,5.10536E-1,-9.992325E-3,1.8869072E-1,5.627555E-2,3.4042472E-1,-1.4040975E-1,5.220806E-1,-0E0,1.0975494E-1,-1.977375E-3,-9.6991556E-5,2.1533663E-3,-2.716827E-4,3.0716795E-3,-0E0,3.7296293E-3,-3.971734E-3,2.6978513E-3,5.4627364E-3,9.995528E-4,-0E0,2.9068314E-3],"categories":[],"categories_nodes":[],"categories_segments":[],"categories_sizes":[],"default_left":[0,0,0,0,0,0,0,0,0,0,0,0,0,0,0,0,0,0,0,0,0,0,0,0,0,0,0],"id":51,"left_children":[1,3,5,7,9,11,13,15,17,19,21,23,-1,25,-1,-1,-1,-1,-1,-1,-1,-1,-1,-1,-1,-1,-1],"loss_changes":[1.7359505E1,4.111618E0,4.621315E0,2.183323E0,3.9166985E0,2.036255E0,4.9371672E-1,2.5021992E0,4.7906322E0,2.4904327E0,2.0432532E0,1.9717789E0,0E0,3.2224247E-1,0E0,0E0,0E0,0E0,0E0,0E0,0E0,0E0,0E0,0E0,0E0,0E0,0E0],"parents":[2147483647,0,0,1,1,2,2,3,3,4,4,5,5,6,6,7,7,8,8,9,9,10,10,11,11,13,13],"right_children":[2,4,6,8,10,12,14,16,18,20,22,24,-1,26,-1,-1,-1,-1,-1,-1,-1,-1,-1,-1,-1,-1,-1],"split_conditions":[6.292367E-2,5.384896E-1,4.083989E0,-8.9474194E-2,2.1009472E-1,6.4739525E-1,-1.8680366E0,-6.453374E-1,-3.2833973E-1,-6.4625657E-1,9.986292E-2,1.3428763E0,-0E0,-2.129464E0,-1.977375E-3,-9.6991556E-5,2.1533663E-3,-2.716827E-4,3.0716795E-3,-0E0,3.7296293E-3,-3.971734E-3,2.6978513E-3,5.4627364E-3,9.995528E-4,-0E0,2.9068314E-3],"split_indices":[8,12,8,12,2,2,9,9,8,4,5,9,0,9,0,0,0,0,0,0,0,0,0,0,0,0,0],"split_type":[0,0,0,0,0,0,0,0,0,0,0,0,0,0,0,0,0,0,0,0,0,0,0,0,0,0,0],"sum_hessian":[1.1702971E3,8.8673315E2,2.8356396E2,6.443051E2,2.4242802E2,2.6944754E2,1.4116415E1,4.3164774E2,2.1265738E2,2.282724E2,1.4155631E1,2.650461E2,4.401449E0,5.8741913E0,8.242224E0,4.6817165E1,3.8483057E2,1.5792955E2,5.4727833E1,2.0522726E1,2.0774966E2,1.0244431E1,3.9112012E0,2.4788217E2,1.716393E1,2.9379487E0,2.9362423E0],"tree_param":{"num_deleted":"0","num_feature":"14","num_nodes":"27","size_leaf_vector":"1"}},{"base_weights":[1.4421958E-2,6.599633E-2,-2.6419088E-1,-9.8311245E-2,8.30681E-2,-3.2179326E-1,2.2028236E-1,1.3371576E-1,-2.1025142E-1,7.035818E-2,3.0078924E-1,-4.0186596E-1,-3.999693E-2,4.4986406E-1,-1.5434874E-3,-1.568532E-3,3.0074068E-3,-4.9781054E-4,-3.6180445E-3,1.2433459E-3,1.05328545E-4,-0E0,4.609118E-3,7.6330185E-4,-4.3486194E-3,2.1144561E-3,-2.2331385E-3,-7.5529405E-4,6.4875153E-3],"categories":[],"categories_nodes":[],"categories_segments":[],"categories_sizes":[],"default_left":[0,0,0,0,0,0,0,0,0,0,0,0,0,0,0,0,0,0,0,0,0,0,0,0,0,0,0,0,0],"id":52,"left_children":[1,3,5,7,9,11,13,15,17,19,21,23,25,27,-1,-1,-1,-1,-1,-1,-1,-1,-1,-1,-1,-1,-1,-1,-1],"loss_changes":[1.4565464E1,2.4401762E0,4.63795E0,2.1390767E0,1.7845201E0,2.761695E0,1.8170905E0,1.3765062E0,9.092343E-1,2.308393E0,2.224579E0,2.1398048E0,1.7986529E0,1.9391346E0,0E0,0E0,0E0,0E0,0E0,0E0,0E0,0E0,0E0,0E0,0E0,